-1	62	4.3088603425285354
-1	53	2.0324634953209384
-1	78	1.8343274797933338
-1	104	1.7862399618677638
-1	272	1.727786025719572
-1	186	1.673871298737791
-1	51	1.6697487727419655
-1	1087	1.634545725399674
-1	381	1.625757971382104
-1	139	1.5423862939844502
-1	82	1.5374123198313299
-1	2884	1.53541491371916
-1	3662	1.4918219385056133
-1	71	1.4907696666635966
-1	243	1.4733384073814413
-1	3657	1.4314185559393338
-1	221	1.4265593643243148
-1	237	1.3696956080208524
-1	308	1.3593878882895214
-1	794	1.3189906863778234
-1	393	1.310782638678614
-1	3321	1.3094707129755219
-1	849	1.294382931510382
-1	471	1.2894814535276906
-1	2667	1.2893584430620861
-1	332	1.2768101416898523
-1	630	1.2728081652130074
-1	856	1.2637966787633599
-1	629	1.258256800655907
-1	2739	1.2491565068962431
-1	760	1.2378840216935878
-1	1524	1.2290591295608566
-1	1278	1.2214628658639106
-1	626	1.2194752480887319
-1	187	1.218093679640745
-1	4387	1.217014483505226
-1	773	1.208813205393697
-1	625	1.199689692717823
-1	4638	1.1996607637924233
-1	495	1.1994384940564098
-1	945	1.1978894544319807
-1	229	1.197686801905
-1	977	1.1947762215977795
-1	3483	1.1922054102588804
-1	2872	1.1841612339483099
-1	1858	1.1822957295317726
-1	1148	1.1789050331519908
-1	5655	1.1721949691790183
-1	121	1.1670767095741847
-1	114	1.161982954553829
-1	2852	1.1587312382788029
-1	113	1.1583374833412534
-1	2531	1.1535079019280832
-1	3614	1.151521442231048
-1	1515	1.148606210567338
-1	3173	1.1453829220327525
-1	4233	1.1429968790649496
-1	4130	1.1407873176654695
-1	955	1.133721073951274
-1	2266	1.132852045774846
-1	2998	1.126076451137909
-1	1204	1.1224402346822877
-1	<default>	1.1157718874474698
-1	3697	1.1143295540796336
-1	1635	1.113370845552424
-1	419	1.10739271690105
-1	2961	1.104922941148148
-1	297	1.102830909393053
-1	2528	1.1021446704227595
-1	257	1.101016484846944
-1	809	1.0922865642608988
-1	585	1.0919505915449692
-1	306	1.088964081063343
-1	1115	1.0887620423214643
-1	293	1.0876216194420314
-1	2645	1.087084226086331
-1	1833	1.0870281807858642
-1	193	1.0757009203408463
-1	192	1.0757009203408463
-1	3613	1.0743676936193491
-1	454	1.0706228685856212
-1	2642	1.0698374025935777
-1	1497	1.069485313217884
-1	1368	1.0689501727224526
-1	3638	1.0672800910811355
-1	667	1.0658637366242214
-1	2695	1.0637705311082506
-1	1809	1.0634401200026966
-1	501	1.0632886090087663
-1	6188	1.0632194346326096
-1	3671	1.0623117450514519
-1	6072	1.0617836386633466
-1	3664	1.055495726721158
-1	1239	1.0510476057083769
-1	3465	1.0444322739715133
-1	570	1.041350590958252
-1	2676	1.0322691497306216
-1	4356	1.0291070055223759
-1	1172	1.0291029263328784
-1	3750	1.0285595720607028
-1	370	1.0237995155314
-1	1492	1.0223564254549258
-1	1553	1.0216211120788552
-1	1717	1.019980057668958
-1	919	1.0134713716069779
-1	395	1.0105846060977592
-1	1284	1.0071134250730347
-1	251	1.0029564882376363
-1	3111	0.9976287722947556
-1	3669	0.994587985170156
-1	642	0.9930524646361675
-1	80	0.9912283340151741
-1	3159	0.9822314240495362
-1	1978	0.9787273258096894
-1	1754	0.977878691460055
-1	1402	0.9767998729925783
-1	1786	0.976175900595983
-1	2611	0.9761104282839137
-1	2240	0.9715419241599108
-1	6193	0.9693966314144704
-1	1529	0.9679309326733205
-1	87	0.9582842398157296
-1	844	0.9560756604654916
-1	2724	0.9486419296221407
-1	109	0.9483401904010653
-1	1621	0.9472459258010331
-1	3608	0.9466014438359395
-1	2186	0.9355607360901274
-1	2199	0.9346345040298661
-1	1744	0.9327720436160207
-1	3913	0.9315522405161235
-1	3746	0.9307097065353739
-1	3320	0.9272958673441486
-1	1160	0.9259788386662876
-1	509	0.9246424130361669
-1	271	0.9244930837536952
-1	1135	0.9241591830592031
-1	3498	0.9211318653625269
-1	202	0.9197011008249403
-1	2159	0.9196593230504366
-1	2926	0.9196573125011998
-1	1290	0.9170809656304729
-1	201	0.9131586097087105
-1	1113	0.910739851595458
-1	2823	0.9105142606316833
-1	978	0.9091308797828586
-1	3073	0.9063317282582596
-1	2247	0.9052596006540421
-1	3637	0.9030732384975628
-1	2680	0.8987534016172898
-1	4595	0.8964920573630627
-1	132	0.8962764848769267
-1	2775	0.8925130429304934
-1	1869	0.8910254858868942
-1	3756	0.8894811270811696
-1	3622	0.8874821196486808
-1	2012	0.8869492131534006
-1	1123	0.8863540463588157
-1	5155	0.8857836180918677
-1	29	0.8848811162795873
-1	690	0.8832243277677325
-1	411	0.8793518000301868
-1	1709	0.8751154137602536
-1	1055	0.8750169660643086
-1	3199	0.8674462243100971
-1	2780	0.8637283464214249
-1	3703	0.8597815371919001
-1	534	0.8595035078261165
-1	3355	0.8585254967754198
-1	1903	0.8582498394483586
-1	5507	0.8579032890283602
-1	1228	0.8556012115891393
-1	2524	0.8555991239713586
-1	3723	0.853870365947021
-1	832	0.8511348877902437
-1	1857	0.8508366354897597
-1	2923	0.849010406911853
-1	6099	0.8468251125624195
-1	1283	0.8454401612810827
-1	1096	0.8443118686297959
-1	2414	0.8432232724935824
-1	875	0.8428403812733097
-1	3054	0.8421074189189441
-1	5088	0.8413841653837411
-1	1221	0.8412137454319117
-1	1568	0.839102926374778
-1	748	0.8368904297238978
-1	27	0.834699652702707
-1	559	0.8346199741038917
-1	472	0.825779112530147
-1	1617	0.8252801611205317
-1	3610	0.8161062649744519
-1	1570	0.8152967733243159
-1	1208	0.8132791868744731
-1	3039	0.8128959363578194
-1	3332	0.8106809968790043
-1	151	0.8091124130815728
-1	1577	0.8049909995051939
-1	99	0.8016854478055594
-1	2692	0.801583023222238
-1	694	0.799098386807825
-1	566	0.7966868509501338
-1	3445	0.7933547128625209
-1	3665	0.7925625323381303
-1	3392	0.7827358934959776
-1	64	0.7821201951989232
-1	3668	0.779020935051766
-1	1697	0.777119318364737
-1	1456	0.7758496005331056
-1	4048	0.7747597316875462
-1	1729	0.7745036147738895
-1	793	0.7742346169560212
-1	2743	0.7742010074277924
-1	916	0.7699896730846005
-1	1073	0.7686816394570862
-1	396	0.7643558315284895
-1	235	0.7634169226523805
-1	1177	0.7632419390357846
-1	1095	0.7627043801247139
-1	3098	0.7621990765204206
-1	976	0.7608187170689177
-1	3774	0.7601264372193925
-1	2030	0.7573352977483204
-1	1304	0.7572941610715889
-1	2530	0.7541261140910795
-1	164	0.7503627992180418
-1	440	0.7476908597712127
-1	2830	0.7463820146974496
-1	536	0.7447019978291672
-1	2898	0.7443082315244387
-1	93	0.7420190317132531
-1	2488	0.7416942301095529
-1	5213	0.7415187224119772
-1	5771	0.7412160748041016
-1	1712	0.7409149315928142
-1	2283	0.7405268533990726
-1	4752	0.7405153822178233
-1	324	0.7393615349036972
-1	5080	0.7381998533470284
-1	2706	0.7370945061485448
-1	359	0.7302442522107806
-1	3406	0.7285171065506792
-1	1395	0.7283883748362708
-1	4552	0.7279162374405359
-1	2208	0.7260194818592265
-1	4177	0.7258080663506443
-1	2703	0.7221827462713923
-1	129	0.7217582912412338
-1	640	0.7217138990192064
-1	3641	0.7212497857732308
-1	828	0.7211588282904406
-1	3203	0.7198341270323397
-1	3328	0.7189037526322458
-1	1360	0.7184715706735197
-1	3798	0.7166047353161242
-1	3799	0.7149762794167399
-1	3683	0.7140263973869679
-1	2090	0.7134766874600055
-1	3067	0.7121265852295187
-1	3131	0.7114702136966933
-1	134	0.7088819623226676
-1	1501	0.7085458565763069
-1	270	0.707633436602135
-1	494	0.7073388834779805
-1	2612	0.7072168083341598
-1	2294	0.7056173202439887
-1	1647	0.7048588860590342
-1	1811	0.703763113313794
-1	413	0.7036578027627803
-1	3401	0.7034125076428014
-1	2978	0.7022862702436775
-1	1312	0.7019903745350743
-1	4360	0.7019311697473442
-1	328	0.7018592273032628
-1	259	0.7016687601277296
-1	3420	0.7003228630251979
-1	914	0.6988953369328791
-1	2970	0.6956780383710662
-1	712	0.6950581725458714
-1	2259	0.6945963549262901
-1	3989	0.6945246038480528
-1	5139	0.6944427136063316
-1	2902	0.6941538568519741
-1	2359	0.6927827018601228
-1	2689	0.692617387224476
-1	549	0.6908245147750003
-1	2637	0.6898214272795984
-1	2268	0.6894103659165928
-1	4012	0.6880366102136385
-1	2195	0.6878396825722398
-1	3822	0.687163909016328
-1	3370	0.6864807066406541
-1	1863	0.6852459295443668
-1	4182	0.6850128461174901
-1	2123	0.6848712467205865
-1	1597	0.6845266344027707
-1	2623	0.68398262780716
-1	4334	0.6837316706110258
-1	1961	0.6833680213508692
-1	1536	0.682746194663233
-1	2673	0.6809999487071943
-1	2339	0.6802792461254694
-1	103	0.6799778541722197
-1	211	0.6785985624916305
-1	1108	0.6774791513860795
-1	1337	0.6761043580615949
-1	120	0.6760696195038033
-1	3427	0.6753493931925371
-1	2348	0.6750932204516148
-1	3211	0.6747480967457312
-1	4129	0.6732227430830388
-1	2838	0.6717872024791138
-1	3391	0.670906410731637
-1	1347	0.6700744561290712
-1	1626	0.6697963679822144
-1	738	0.6697575326295006
-1	4421	0.6687859418245575
-1	4380	0.6676891616213312
-1	2584	0.664650592442157
-1	4433	0.662761507836901
-1	387	0.6610888762141613
-1	1882	0.6609319035689799
-1	463	0.6596759530765642
-1	2297	0.6595763351714627
-1	2989	0.6594854833104679
-1	65	0.6579063899333816
-1	439	0.6576024141902316
-1	3965	0.6575017525839655
-1	1893	0.6559672360262897
-1	1215	0.6557540683343576
-1	3337	0.6532488290045004
-1	539	0.6531980609191477
-1	6045	0.6512129908854808
-1	5111	0.6477997440839836
-1	4458	0.6477507460347837
-1	3148	0.646830160089122
-1	700	0.644770180739909
-1	1014	0.6442672116193946
-1	641	0.6429630487767896
-1	4641	0.6428853938263338
-1	4473	0.6408577681497188
-1	174	0.6384259163846165
-1	1819	0.6379679928780495
-1	938	0.6377793360683001
-1	2439	0.6376504050841286
-1	2876	0.634931489567627
-1	3451	0.6321399299048315
-1	3658	0.6309344758144011
-1	1726	0.6281374896398787
-1	726	0.6274166745017907
-1	3549	0.6252996601705793
-1	2126	0.6252532502350834
-1	1623	0.6225062814041947
-1	1065	0.6221749851665
-1	2230	0.621489750215601
-1	2963	0.6190111463233525
-1	2062	0.6179829612835216
-1	1000	0.617801238168969
-1	3677	0.6162888721374938
-1	3124	0.6161362784666883
-1	3615	0.6160971594671811
-1	1410	0.615850243490285
-1	714	0.6152669572129114
-1	1601	0.6138675369368902
-1	1670	0.6137917713643715
-1	1153	0.6134542633745578
-1	584	0.612699272178678
-1	1711	0.612642439470538
-1	4492	0.6102816328625325
-1	382	0.6097263919080713
-1	1972	0.6096692755677771
-1	812	0.6085114526159306
-1	2873	0.6068198810774852
-1	3648	0.6067635940113502
-1	21	0.6064343896089991
-1	3105	0.6041470380663274
-1	4513	0.6041304929766793
-1	2782	0.6030828749432577
-1	3691	0.6011529522014128
-1	1802	0.599797365163697
-1	479	0.5993229363066364
-1	2609	0.5992970113559625
-1	4078	0.5964520884687835
-1	416	0.5957075672933279
-1	1031	0.5946357968993202
-1	2665	0.5944612208568735
-1	1425	0.5941284299711045
-1	1523	0.5938037760979127
-1	2828	0.5936744678311505
-1	1034	0.5934888983733251
-1	376	0.5934026451917006
-1	4299	0.5925801583049164
-1	3194	0.5916380826540119
-1	5703	0.5906011936579958
-1	5996	0.5903986806063891
-1	258	0.5893608300399266
-1	3262	0.5869454935798845
-1	811	0.5862657160178185
-1	2879	0.5839769781573942
-1	3022	0.5831731353795354
-1	234	0.5831598478569487
-1	3053	0.5831521502809506
-1	3120	0.5826805222934753
-1	1032	0.5820373415995341
-1	502	0.5817420659633796
-1	3333	0.5816463231202612
-1	84	0.5816076179426127
-1	1071	0.581419234343586
-1	3384	0.579276402572725
-1	6101	0.5787860716599452
-1	3191	0.5772613664224312
-1	3791	0.5754311953801966
-1	2372	0.575224393014496
-1	3138	0.5748852026043205
-1	599	0.5732774954259414
-1	3889	0.5728097334117421
-1	1789	0.57177671914397
-1	1381	0.5717120612262381
-1	4543	0.5700261532207449
-1	1020	0.5696228189849533
-1	1315	0.5687199681040651
-1	3069	0.567746980523293
-1	2927	0.5675732579650862
-1	292	0.5648539187244934
-1	3046	0.563657236151566
-1	227	0.563117344665381
-1	1319	0.563117344665381
-1	3944	0.5627031959603275
-1	623	0.562254151117739
-1	3249	0.561644631158893
-1	5917	0.560715613892103
-1	3696	0.5586245678301065
-1	1044	0.5584245285801746
-1	3050	0.5584109462208232
-1	2614	0.5582755172739284
-1	1724	0.5575573708951498
-1	4286	0.5565088822984182
-1	998	0.5564139176078451
-1	3248	0.5563590083575296
-1	2788	0.5559197590515927
-1	3968	0.5556995729261782
-1	1667	0.5546799712389915
-1	2289	0.5538470905959687
-1	3788	0.553450520720064
-1	1189	0.5524694378671092
-1	3383	0.552113194816684
-1	1505	0.5511507099130961
-1	3835	0.5504938225837218
-1	2052	0.5501439099252928
-1	525	0.5490292013271542
-1	1579	0.5485229151166707
-1	510	0.5481692281926522
-1	6342	0.5476046881367215
-1	6209	0.5473698930481264
-1	627	0.5454044339168005
-1	1545	0.5450952194762542
-1	4431	0.5432183381713657
-1	3881	0.5423464212383728
-1	4075	0.5419222964889407
-1	767	0.5409987810692485
-1	4527	0.5406230584756169
-1	2218	0.5401316178033996
-1	3708	0.5399318657670394
-1	3775	0.5397747761835903
-1	4150	0.538747715756636
-1	5238	0.5386983281329405
-1	1027	0.538684691024519
-1	277	0.5384957485814648
-1	1100	0.5370935210697481
-1	458	0.536627153680846
-1	3288	0.535238916576714
-1	3632	0.5346718788505124
-1	5905	0.5343047348331269
-1	2	0.5342192391271452
-1	1428	0.5321994927721102
-1	3537	0.5306207641634831
-1	3987	0.5294379345670819
-1	1812	0.5287953401883908
-1	2805	0.5287953401883908
-1	3317	0.5281002644744032
-1	2116	0.5276784011135244
-1	2652	0.5269976409931609
-1	6086	0.5253301792264955
-1	2291	0.5248108070429638
-1	3341	0.5230473073030268
-1	3870	0.5221509102820997
-1	4869	0.5218189007290182
-1	3269	0.5216092718081783
-1	3205	0.5209465105753157
-1	4801	0.519839427139097
-1	2393	0.519212445091027
-1	4862	0.5166971097436261
-1	620	0.5156580724422295
-1	3998	0.5152033838586878
-1	1487	0.5150899556079171
-1	2919	0.5147832470338817
-1	5864	0.5142265670228365
-1	1033	0.5133496415382905
-1	4648	0.5133445571185337
-1	3059	0.5132644459398639
-1	2561	0.5127849228173681
-1	2956	0.5122992378728808
-1	2626	0.510655312195188
-1	3285	0.5098158264890252
-1	1274	0.5095330992220922
-1	3281	0.5092888001635051
-1	845	0.508511513331259
-1	1780	0.5073823691716273
-1	2928	0.5067058153515394
-1	402	0.5060574243000578
-1	2917	0.5060201139066998
-1	649	0.5059388294130062
-1	1187	0.5050816248255159
-1	4069	0.5047930062151541
-1	4189	0.5040016722706157
-1	2239	0.5034135376323506
-1	89	0.5030121559058998
-1	4580	0.5025207361801972
-1	3581	0.501988462761065
-1	2988	0.5015315378605713
-1	799	0.5013339393956022
-1	417	0.49967862093524673
-1	4643	0.49954937479323275
-1	1026	0.4984642321852927
-1	607	0.4983855779715865
-1	3597	0.49754994222365057
-1	1673	0.4974382676097966
-1	6100	0.4959113997583599
-1	3908	0.49522931927530767
-1	2570	0.4945706314595175
-1	757	0.49400266084457517
-1	1758	0.4937226902329173
-1	3353	0.4933023180950471
-1	1688	0.49197526243433093
-1	3809	0.4918366458955548
-1	108	0.4910682080972358
-1	2603	0.49073434098242585
-1	2474	0.4901009378154244
-1	3488	0.48963316143143387
-1	2135	0.4881835172308199
-1	2496	0.4874685014928031
-1	4201	0.48717554208345104
-1	281	0.48678583991274954
-1	6143	0.48588669328972073
-1	2581	0.4857384100358641
-1	4480	0.48477082491402823
-1	3699	0.48369313380873613
-1	2366	0.4833362528457121
-1	3900	0.48311243708118673
-1	2130	0.48269975488618666
-1	1028	0.4824477344534337
-1	3158	0.4819483396197582
-1	2717	0.4817831929317203
-1	4423	0.481751286376915
-1	3555	0.48149649817058715
-1	142	0.4807707669955125
-1	2280	0.4802312045707905
-1	3357	0.479081095714071
-1	1721	0.476468623886489
-1	3659	0.47611978885694556
-1	4477	0.4756377780377982
-1	3231	0.47535454962991724
-1	5173	0.47530700521363556
-1	2075	0.47489016657467803
-1	412	0.4747090089034788
-1	2771	0.47426340324120675
-1	4055	0.47392970988242616
-1	4200	0.47250445287716797
-1	2275	0.47156634503624734
-1	542	0.4714131232529403
-1	2554	0.46920626125069476
-1	3956	0.46918114947008993
-1	5651	0.4687358892754418
-1	2773	0.46863819457222117
-1	1373	0.4679014768873155
-1	506	0.4674702051438989
-1	1756	0.4670843973593403
-1	3806	0.46677516840347283
-1	3447	0.465311734181834
-1	1611	0.464955587884976
-1	2865	0.46471515538319835
-1	4191	0.46409144175588
-1	2437	0.46373126045789087
-1	2108	0.4636138044456832
-1	2343	0.46356825086507514
-1	1793	0.46350723159936363
-1	4597	0.4629474763642293
-1	897	0.46267041827004174
-1	589	0.462281665861142
-1	2058	0.4618051830274501
-1	4328	0.4613873813498076
-1	1262	0.4604328284378542
-1	3356	0.4602835764407516
-1	1734	0.4600847226959426
-1	1748	0.45857877751993203
-1	3940	0.45824124606230743
-1	579	0.4577272952639685
-1	1488	0.4571395888243442
-1	3421	0.4570799321028852
-1	5896	0.45629482027139107
-1	3975	0.45523468690999613
-1	4429	0.4551305095626922
-1	5218	0.4551121791474812
-1	1666	0.4542564176149396
-1	3654	0.453931816300857
-1	157	0.4534898753828339
-1	3175	0.45244863912376493
-1	206	0.45216990924373757
-1	2647	0.4517174546472
-1	3884	0.4512064477131686
-1	2556	0.45118650894376305
-1	3500	0.4504225412687142
-1	2658	0.45001917406014896
-1	3947	0.4499504214292558
-1	5966	0.44921147470584877
-1	988	0.4487535855851773
-1	1552	0.44866262478343455
-1	2562	0.44784472671553344
-1	983	0.4466394590176948
-1	5669	0.4464248991245966
-1	3911	0.44615502910846583
-1	1364	0.4449953150268707
-1	2128	0.44499407245166794
-1	4073	0.4449306829901426
-1	4335	0.44393282884242924
-1	628	0.4436901339927557
-1	4802	0.4436422344346945
-1	582	0.44256352245308417
-1	4647	0.4425238200139309
-1	4537	0.441992971800807
-1	3949	0.441992971800807
-1	802	0.4409933028637133
-1	735	0.4409417655674448
-1	5125	0.4402305558353654
-1	2661	0.44020857017114623
-1	482	0.43997434099948757
-1	4426	0.43978698049178794
-1	14	0.43949818439828764
-1	2292	0.4383542077895709
-1	313	0.43801593248050147
-1	1447	0.437567475902483
-1	5251	0.437518519357159
-1	2903	0.43665909379066137
-1	2895	0.4363483576471909
-1	3099	0.43597397625747736
-1	3143	0.43594953599700165
-1	3920	0.43573036628093215
-1	2962	0.43331222558287896
-1	1747	0.4324288908162448
-1	942	0.4324243308233588
-1	2725	0.4313673762318317
-1	6253	0.4311289193311228
-1	682	0.43058437577334335
-1	115	0.43035375733768455
-1	3543	0.43011512963517745
-1	6239	0.42951016875527526
-1	2170	0.4282951795030046
-1	3404	0.4278513844730343
-1	3766	0.42766792501880546
-1	3338	0.427404339812222
-1	4931	0.42646229678607434
-1	4148	0.42570645595757695
-1	4800	0.4250374639962974
-1	3802	0.42450843861428583
-1	3411	0.4243894842812451
-1	4006	0.42425431737521063
-1	4179	0.42403029600096853
-1	4205	0.4230825164836236
-1	632	0.42297765831283696
-1	4872	0.42287729744449765
-1	2098	0.4202038237033851
-1	1303	0.4199901235225357
-1	4062	0.4198434650145172
-1	1427	0.4196110792194692
-1	2104	0.4194515801048076
-1	2515	0.4186650685318574
-1	5973	0.41846245134441
-1	4204	0.4179799580518477
-1	1782	0.4174990702689604
-1	4043	0.41637450774365886
-1	2868	0.4163683241994507
-1	2657	0.4156559351837242
-1	5833	0.4155996359006846
-1	4672	0.4155314139817327
-1	1107	0.41549677989284073
-1	4422	0.41548015930822024
-1	366	0.4140295377986884
-1	5628	0.4138122089352821
-1	4320	0.4136519242467392
-1	5277	0.4127433609600425
-1	1815	0.4125754482787107
-1	3188	0.4107879683929867
-1	3640	0.4107762290101093
-1	3443	0.4107505755549029
-1	5828	0.4106966662295717
-1	456	0.4102943899982207
-1	5718	0.4100792719677449
-1	446	0.40988887584544675
-1	3830	0.4096946759886158
-1	2381	0.40920563701747076
-1	428	0.40846577797507216
-1	3196	0.40842879675580523
-1	1341	0.4076171097014544
-1	2441	0.4072565146533805
-1	1066	0.40700320403687296
-1	3765	0.40513758457887344
-1	197	0.40485392221876004
-1	3134	0.4038579515691512
-1	2220	0.4038345710601715
-1	1216	0.40344820808060267
-1	3895	0.4031621446860629
-1	6190	0.40307101364157666
-1	3918	0.4026453038069921
-1	3390	0.40262567512802094
-1	409	0.4023336168957192
-1	2750	0.40227663211971104
-1	4677	0.40214538375861
-1	228	0.4020608785229336
-1	3270	0.4011282852131693
-1	761	0.40069304250983373
-1	1088	0.4005699161495489
-1	3172	0.40034591256604063
-1	4589	0.40006277762236375
-1	4459	0.40000743069537953
-1	3759	0.39975628142784553
-1	915	0.39956862904890617
-1	301	0.3995685978304034
-1	2249	0.3993724110594319
-1	4914	0.399287854637694
-1	4823	0.3982594484854356
-1	4724	0.39786541924064855
-1	3770	0.3976914890883705
-1	3910	0.397437205029431
-1	2148	0.39694172534362543
-1	2325	0.3966653110143136
-1	1356	0.39600042045875494
-1	3981	0.39573756778396313
-1	13	0.3957271325536675
-1	3470	0.395635836582194
-1	2278	0.3954132456176437
-1	4688	0.39506634399377555
-1	4203	0.39474110259342543
-1	4025	0.3946356093610284
-1	5190	0.3944538902670146
-1	2460	0.3943790103526243
-1	5122	0.3942348029792526
-1	3409	0.3940550562227026
-1	861	0.3940310723327308
-1	2514	0.39364629642573423
-1	1398	0.3936304466275942
-1	3594	0.393380915671479
-1	4327	0.39317662208728826
-1	3035	0.3931220064124161
-1	937	0.39305402354137225
-1	1194	0.39267496179467537
-1	436	0.3921928513685425
-1	562	0.39175171640180934
-1	4616	0.39175171640180934
-1	4634	0.39175171640180934
-1	3758	0.39175171640180934
-1	6176	0.39173656833119963
-1	3716	0.39173656833119963
-1	2808	0.3916596403304628
-1	507	0.39066225742312555
-1	4206	0.3902830646815995
-1	3419	0.39009206287972237
-1	2370	0.3897138180566545
-1	141	0.38957313731993054
-1	3104	0.3894201408752491
-1	3627	0.3891509136879643
-1	650	0.38904878822171096
-1	3395	0.3885829767277508
-1	5083	0.3883917003473766
-1	1669	0.3872989911919243
-1	3601	0.3870216532414444
-1	4026	0.3869945023844015
-1	3056	0.38697591307837903
-1	1517	0.38641585815795365
-1	1380	0.3862886212682694
-1	863	0.38627408991745765
-1	6034	0.38593828171521105
-1	5867	0.3858564223497547
-1	2957	0.38584121108848224
-1	1003	0.3857358002396698
-1	3160	0.385336489674817
-1	3823	0.3852871095273644
-1	2109	0.3851702377138347
-1	792	0.38508448556800084
-1	3459	0.38475640658472365
-1	1235	0.38413829669656485
-1	741	0.3833601278714742
-1	2783	0.3826869194593201
-1	1043	0.38261121998975034
-1	1679	0.38210320577465895
-1	1302	0.38194184346382093
-1	68	0.3817154479169719
-1	2501	0.3815797337454409
-1	5117	0.38155889223422296
-1	6117	0.3815496849641225
-1	1737	0.3808624741732256
-1	5114	0.38028555766309313
-1	3773	0.3802707091297752
-1	3130	0.3802266319761531
-1	276	0.379821993928166
-1	4695	0.3797162453214013
-1	2290	0.37933626574917106
-1	4030	0.3789334787621765
-1	1964	0.3787017550817259
-1	2960	0.37749601651298387
-1	484	0.3774220468767926
-1	1584	0.3769968227082548
-1	453	0.3769355272228369
-1	4596	0.37689051775104265
-1	4253	0.37689051775104265
-1	2223	0.37689051775104265
-1	3897	0.37689051775104265
-1	2334	0.3765454418591543
-1	4619	0.3764639546620786
-1	4973	0.3759995268311929
-1	1781	0.37583182468727716
-1	1578	0.37583182468727716
-1	5913	0.37583182468727716
-1	838	0.37583182468727716
-1	2653	0.37583182468727716
-1	5522	0.375748595304849
-1	4414	0.375748595304849
-1	819	0.3753107776179359
-1	485	0.37515810626476853
-1	3961	0.37489571272949856
-1	5179	0.3746485082767695
-1	6091	0.37411781883203926
-1	355	0.37391188202034475
-1	2720	0.3716185057831951
-1	3829	0.3715488862991308
-1	2829	0.371516379056197
-1	1864	0.37130867725171224
-1	1900	0.37127508049875985
-1	4301	0.3702732987169489
-1	1877	0.37006050141897545
-1	96	0.370017153146749
-1	116	0.369735909389713
-1	1968	0.3696516585371024
-1	2124	0.3693125569411857
-1	1763	0.3682184561933329
-1	4158	0.36782263907315477
-1	1473	0.3674829247851598
-1	339	0.3670935773250048
-1	2711	0.36687523031254526
-1	1770	0.366720518637166
-1	564	0.3667114291884574
-1	6016	0.36667612623202395
-1	1191	0.3665086897546892
-1	2728	0.36588290246956473
-1	833	0.3658740361631376
-1	3734	0.3655652015259848
-1	5525	0.36502983528751604
-1	1264	0.3645913973369827
-1	3415	0.3638956490945423
-1	2659	0.3637546485283979
-1	2705	0.36360868335684776
-1	6114	0.36348246473574364
-1	3928	0.3628537888256162
-1	1286	0.36275649920526154
-1	4063	0.3622839144138589
-1	857	0.3621470099946477
-1	939	0.3618253471159676
-1	4033	0.3616662285450799
-1	602	0.3616447515026553
-1	2807	0.36149250454529525
-1	284	0.3609955030628524
-1	6123	0.36090004841405
-1	459	0.36025272826427446
-1	2779	0.35998687608963914
-1	1268	0.35977005504148996
-1	4542	0.35970609541180304
-1	3150	0.35970609541180304
-1	862	0.3595652726277451
-1	1547	0.3595512510115168
-1	2356	0.3595512510115168
-1	3711	0.35946493617944797
-1	4818	0.3592371279724226
-1	1002	0.3591131096202663
-1	3339	0.3585806178303166
-1	1520	0.3583940153778361
-1	1423	0.35771164283625817
-1	2726	0.3575514752381259
-1	1720	0.3574553446478045
-1	3466	0.35742018244352775
-1	2694	0.35730933214244814
-1	6012	0.35730933214244814
-1	2950	0.3572470438829203
-1	5457	0.3565225554465326
-1	4218	0.3560764318988852
-1	1465	0.3559226243855018
-1	5695	0.3554734905268572
-1	5299	0.3554622368788951
-1	3878	0.3554313880990278
-1	4828	0.3544813205816948
-1	2365	0.35440436546130843
-1	4219	0.3542991491287034
-1	6079	0.3533875339575438
-1	3839	0.3533160288171058
-1	2216	0.3530238282222384
-1	2215	0.3530238282222384
-1	1944	0.3528756408297467
-1	704	0.35233236678219765
-1	3195	0.3519760160711232
-1	2851	0.35197036066317616
-1	1795	0.3517945525125859
-1	4972	0.3515888411717986
-1	1555	0.3509613266493039
-1	5106	0.3509139084247161
-1	422	0.35042488826929513
-1	5453	0.35018487415962785
-1	3722	0.3497907946683372
-1	1693	0.3497271272118457
-1	4059	0.34925716718873867
-1	2028	0.34905413967476706
-1	4598	0.3483250594476051
-1	4625	0.3480090197996651
-1	3096	0.34792555726764246
-1	1306	0.3472390259883812
-1	3598	0.34669166276904156
-1	3673	0.3464760028010142
-1	2774	0.34634355751991225
-1	4732	0.34611458667286304
-1	3387	0.34564114108032756
-1	3858	0.34501681009619195
-1	924	0.3449907497453323
-1	269	0.34485650753002983
-1	3094	0.34474165763265296
-1	100	0.344142452480677
-1	2415	0.343985641247178
-1	318	0.3439524846267452
-1	2924	0.3435970733063078
-1	4678	0.3435158883967195
-1	3926	0.34324778192754335
-1	256	0.34293612986284955
-1	106	0.3425782656308607
-1	2014	0.34248543845592255
-1	590	0.3423461123056353
-1	2347	0.3421764128921621
-1	5601	0.3421047773194112
-1	2517	0.3419753110511916
-1	3399	0.34195795484949204
-1	3408	0.34195795484949204
-1	674	0.34179013171255224
-1	4452	0.3417274569186546
-1	3258	0.3412889098406
-1	5305	0.3406594347763626
-1	4868	0.34059533975078254
-1	1193	0.340429515065435
-1	2668	0.33981383483049327
-1	6087	0.33974184753597053
-1	3804	0.3394857607155852
-1	1010	0.3393337173935827
-1	1534	0.33783160120202027
-1	5350	0.3378089708179475
-1	1751	0.337748464061952
-1	4881	0.33768041665773635
-1	1580	0.337570943932372
-1	1104	0.337570943932372
-1	1718	0.33733270811391186
-1	2171	0.33727327621419817
-1	1184	0.3371777211366344
-1	4546	0.337009267617362
-1	1443	0.3367865752420398
-1	1289	0.3364355042975427
-1	2068	0.3361416528302566
-1	3873	0.3359994881348737
-1	2622	0.33494666115846317
-1	5312	0.3347818344134154
-1	6191	0.3347818344134154
-1	1509	0.33474466458362645
-1	993	0.3340742263221239
-1	5951	0.33379979192903936
-1	2046	0.3337715644413408
-1	1514	0.3335201515006694
-1	1630	0.33347096053339936
-1	1438	0.33347096053339936
-1	3841	0.3334598043775313
-1	6360	0.33318492127410465
-1	5012	0.33301358635005973
-1	2800	0.3327231003294067
-1	460	0.33236440082354385
-1	2651	0.3313280319216159
-1	4361	0.33118142700374503
-1	1905	0.33107538791667174
-1	3951	0.3307644003590562
-1	4564	0.33064968813994755
-1	3424	0.33058740665693426
-1	3113	0.3302984290239237
-1	2132	0.33022296874524637
-1	41	0.3301709498337675
-1	4509	0.3301271949650573
-1	4585	0.3299333103044546
-1	1615	0.3299333103044546
-1	4155	0.3299333103044546
-1	1662	0.32974233166695927
-1	5063	0.32924304976579
-1	6228	0.3290736283212775
-1	5879	0.32877819610818815
-1	2086	0.32877819610818815
-1	3071	0.3284515321515769
-1	4676	0.32828290860097664
-1	4957	0.32828290860097664
-1	4114	0.32828290860097664
-1	2246	0.32828290860097664
-1	6133	0.32828290860097664
-1	3924	0.32828290860097664
-1	3973	0.32773551402532636
-1	1715	0.32763565093717495
-1	6299	0.3270272627406102
-1	2213	0.3267978622692481
-1	814	0.3266203810188973
-1	4149	0.326274448007926
-1	2338	0.3260501035908868
-1	1804	0.3255308725221025
-1	5685	0.3255055178786004
-1	5972	0.32521715317990907
-1	369	0.3250782765143754
-1	1450	0.32504780190769184
-1	1039	0.3250373847965532
-1	5028	0.3245393905370997
-1	1977	0.32417656812589474
-1	430	0.3237708522247656
-1	5981	0.3237708522247656
-1	654	0.3237708522247656
-1	4358	0.3237708522247656
-1	3360	0.3237708522247656
-1	434	0.32376079201808955
-1	1752	0.3234143120114295
-1	6113	0.32302492821058315
-1	1444	0.3221935473912198
-1	1464	0.3221168918564997
-1	2559	0.3208255129043929
-1	2625	0.3207992022404942
-1	2849	0.3205766795598679
-1	1690	0.3205766795598679
-1	5658	0.3205766795598679
-1	3268	0.3205766795598679
-1	3761	0.3205766795598679
-1	3116	0.3204429981784262
-1	1984	0.32014935868905553
-1	4965	0.3201360924690958
-1	5019	0.32005365880115566
-1	2313	0.31924955323565074
-1	5270	0.3188603585834562
-1	2935	0.3188411056980532
-1	608	0.3186463480224782
-1	2443	0.3183434422940164
-1	3962	0.31811059186625323
-1	6028	0.31810553418157467
-1	1861	0.31790863414808457
-1	4673	0.31790863414808457
-1	5945	0.31790863414808457
-1	5987	0.31790863414808457
-1	5763	0.31790863414808457
-1	1388	0.31790863414808457
-1	4088	0.31790863414808457
-1	5193	0.31790863414808457
-1	3061	0.31790863414808457
-1	4134	0.3178882455976173
-1	872	0.3175604962180681
-1	4139	0.3175134697063772
-1	2678	0.3175134697063772
-1	3864	0.3175134697063772
-1	3084	0.3175134697063772
-1	3273	0.31724894826148703
-1	2492	0.31695818262211983
-1	1980	0.3167554601853911
-1	3731	0.3165690762643643
-1	3917	0.31651703380795027
-1	2827	0.316458649991133
-1	130	0.3162057024290656
-1	6145	0.3160802201324955
-1	2248	0.3157151335319215
-1	932	0.31569799217702094
-1	2271	0.31544675873084416
-1	3210	0.31537672717702664
-1	4420	0.31521030387773125
-1	5366	0.3150343894310141
-1	517	0.3149928804588097
-1	1831	0.3147396828273026
-1	3271	0.31473358075152313
-1	1641	0.31449151749207277
-1	2362	0.3144281693795662
-1	4966	0.31436811168095913
-1	5077	0.3143363280992262
-1	1784	0.31433498233813867
-1	1462	0.3139346627055925
-1	4578	0.31372043985378056
-1	1412	0.31364672921823533
-1	619	0.31319261217383054
-1	5965	0.31287926181555276
-1	5018	0.31270975142560653
-1	3416	0.3125210953317569
-1	3490	0.3122616016772759
-1	1149	0.31191789246427315
-1	516	0.3116377649514539
-1	5368	0.3115429704457541
-1	4861	0.31090750953632995
-1	2198	0.31090750953632995
-1	6368	0.31036468985882565
-1	899	0.30950349445846903
-1	1722	0.3094265721787247
-1	2438	0.3089464963016458
-1	5713	0.30894357185139176
-1	5483	0.30876223656128776
-1	2094	0.30865841338915884
-1	5932	0.3080177873134286
-1	4450	0.3080177873134286
-1	5954	0.30782072241557734
-1	4697	0.30777651078782003
-1	3417	0.3073615362694129
-1	5790	0.30641153433949947
-1	1105	0.30637234689339293
-1	3578	0.3063261980104412
-1	595	0.30627162618343856
-1	5895	0.3059571804603644
-1	5974	0.3056168126650608
-1	59	0.3055881871826313
-1	4052	0.30488864198314924
-1	3055	0.30412954125589364
-1	4588	0.3040587230684235
-1	1375	0.30403140640436493
-1	1696	0.3038539725771067
-1	1616	0.3036882968849458
-1	3812	0.3035475058965719
-1	658	0.30348498480880964
-1	4419	0.3032527436030101
-1	4640	0.30289468346243514
-1	1779	0.30289468346243514
-1	3887	0.30289468346243514
-1	5110	0.30268859410690985
-1	5806	0.302652039956565
-1	294	0.30262827157774036
-1	1059	0.3026271804605348
-1	3655	0.30256519840545576
-1	2007	0.3021728433133216
-1	5030	0.3019936816732066
-1	678	0.30186510184469395
-1	2995	0.3014766523909177
-1	2789	0.3014574187565916
-1	5204	0.3009742951502605
-1	5452	0.30044539971402506
-1	801	0.3003570920636613
-1	1588	0.2995548015887688
-1	3296	0.29898344594530585
-1	5408	0.2987297938084718
-1	3313	0.29845590297378416
-1	3002	0.2983160850892011
-1	4906	0.2982140105660204
-1	28	0.298046844407301
-1	2222	0.2978689789469831
-1	5506	0.2977528061201374
-1	1632	0.2974433312352593
-1	4097	0.29733545030881625
-1	2558	0.2969717317289082
-1	1270	0.2967806683356361
-1	2733	0.2967537151656202
-1	3607	0.2966373630893888
-1	407	0.2962939229821452
-1	3753	0.2962939229821452
-1	317	0.2957689454181165
-1	275	0.29567689174930534
-1	330	0.29535171938692106
-1	3768	0.29523952013496335
-1	4467	0.29517445374089546
-1	3358	0.29517445374089546
-1	1357	0.294817144922356
-1	2547	0.294817144922356
-1	5475	0.294817144922356
-1	3907	0.2946961609408879
-1	1322	0.2945231780350377
-1	2452	0.2945182348488818
-1	1994	0.29438044215185705
-1	1561	0.2941674311103593
-1	4439	0.2937966109624309
-1	2184	0.29340178145825946
-1	3347	0.2932939439705674
-1	4041	0.2927986882545872
-1	944	0.2927473991973141
-1	805	0.2923492850860379
-1	3217	0.2914677097027301
-1	3974	0.2914677097027301
-1	5688	0.28977838198122796
-1	6149	0.2895906563660671
-1	5474	0.28948189712154454
-1	3904	0.28936464705811604
-1	742	0.2892982366368417
-1	3971	0.2892334541554097
-1	3214	0.2890120242929706
-1	1502	0.28883884107606217
-1	959	0.2887266289340417
-1	981	0.2886314155459995
-1	5726	0.2882951001805884
-1	1299	0.2881778409198773
-1	5582	0.28808321733415004
-1	5354	0.2878667676475972
-1	4590	0.2878085235794728
-1	2704	0.2878085235794728
-1	3234	0.2878085235794728
-1	3714	0.2878085235794728
-1	2165	0.28778704331631144
-1	4344	0.28756926593400534
-1	1746	0.2874501598220364
-1	6335	0.2873536828993106
-1	4538	0.28733990586628927
-1	476	0.28733990586628927
-1	4739	0.28733990586628927
-1	5890	0.28733990586628927
-1	3496	0.28733990586628927
-1	3865	0.28733990586628927
-1	1086	0.28720973649787335
-1	6066	0.2870907225519874
-1	5999	0.28672736643349267
-1	5169	0.2866353947928586
-1	1571	0.28656531988704437
-1	4669	0.28647539304367436
-1	5939	0.28647539304367436
-1	250	0.28647539304367436
-1	1672	0.28633868726728173
-1	254	0.2863234537606179
-1	6044	0.28630198721365663
-1	4027	0.2862992215189939
-1	3754	0.28598634051620814
-1	5633	0.28565476361348896
-1	5659	0.28565476361348896
-1	4406	0.28565476361348896
-1	5084	0.28565476361348896
-1	383	0.28563989653412103
-1	316	0.2851759209293546
-1	2825	0.2849481831546944
-1	4166	0.2849481831546944
-1	3628	0.2849481831546944
-1	5908	0.284917532087697
-1	6083	0.284812032207629
-1	775	0.28461510041888644
-1	4990	0.2845327847822402
-1	4011	0.28374046769453504
-1	4199	0.28296266888332433
-1	3398	0.2828709842078119
-1	3407	0.2828709842078119
-1	2102	0.28264070757461274
-1	3377	0.282483713054927
-1	2795	0.2824092281866658
-1	2687	0.2824092281866658
-1	5134	0.2824092281866658
-1	6134	0.2824092281866658
-1	3684	0.28221749912043853
-1	1975	0.28197601570813774
-1	3227	0.28194016632754954
-1	2379	0.2816453386521516
-1	2639	0.2815222521871863
-1	3979	0.2806862603141314
-1	2981	0.2805958279258059
-1	2843	0.280532207983197
-1	3426	0.2805316420302872
-1	1472	0.27987444909750503
-1	3480	0.27966522712158853
-1	4049	0.2795805045492073
-1	4652	0.2795728855030995
-1	4087	0.2795728855030995
-1	3811	0.2785643691604745
-1	5344	0.2784280419423373
-1	5979	0.2781559692891059
-1	1762	0.2774583697837532
-1	6048	0.27726330515394626
-1	2578	0.276844867703025
-1	1628	0.27550265369003907
-1	4181	0.27542853248637406
-1	5532	0.275190786472101
-1	1237	0.27465613958136625
-1	3845	0.27441298247728046
-1	4825	0.27392778091966247
-1	4854	0.27385022612534954
-1	2854	0.2738314639566487
-1	433	0.27380492280578905
-1	5915	0.27380492280578905
-1	4814	0.27380492280578905
-1	4741	0.27380492280578905
-1	291	0.27380492280578905
-1	4324	0.27380492280578905
-1	6089	0.27380492280578905
-1	2270	0.27380492280578905
-1	6154	0.27380492280578905
-1	3997	0.27347229015563596
-1	4532	0.2731617407828339
-1	122	0.2729176171481408
-1	2219	0.2728118898610947
-1	6020	0.2727856639622314
-1	465	0.27168892984797877
-1	4751	0.27168892984797877
-1	2762	0.27156874575341255
-1	3097	0.27156376497535334
-1	2718	0.2713624057560272
-1	1317	0.2711500074457382
-1	307	0.2708360959325307
-1	1918	0.2704502676642039
-1	390	0.27012378018584654
-1	3863	0.2697999217224907
-1	1244	0.2695592293953203
-1	3209	0.26912394249177435
-1	2448	0.2686819028514542
-1	118	0.26816550089849556
-1	1519	0.26773450473545635
-1	329	0.2670216814695862
-1	5420	0.26696848943222135
-1	597	0.2660561537605181
-1	563	0.26602490155723607
-1	1825	0.2656121095069281
-1	5198	0.26537292893207903
-1	4865	0.26508541439205774
-1	2214	0.2648671617882361
-1	208	0.2646769492330616
-1	2734	0.26448530064045706
-1	2176	0.26432771238527175
-1	2015	0.26429549798790175
-1	2662	0.2638720897531541
-1	2457	0.2637691092260909
-1	3682	0.2637104645925698
-1	911	0.2628730751581389
-1	5904	0.2628271147788506
-1	5650	0.2626172599723722
-1	2757	0.2626172599723722
-1	1741	0.2625949077246917
-1	1867	0.26246284466646513
-1	3692	0.2617933601273763
-1	1995	0.2614657069333444
-1	3190	0.2613993574798767
-1	5237	0.26086225439400273
-1	6017	0.2606826981484853
-1	4457	0.26045707544752617
-1	6061	0.26045707544752617
-1	236	0.26043526119517657
-1	5261	0.26037107051698755
-1	851	0.259710229691466
-1	1061	0.25949284474885126
-1	4599	0.25940485494329635
-1	5936	0.25940485494329635
-1	5926	0.25940485494329635
-1	4755	0.25940485494329635
-1	5775	0.25940485494329635
-1	5550	0.25940485494329635
-1	4346	0.25940485494329635
-1	2572	0.25940485494329635
-1	5424	0.25940485494329635
-1	6090	0.25940485494329635
-1	3389	0.25940485494329635
-1	6201	0.25940485494329635
-1	3930	0.25940485494329635
-1	1915	0.25940485494329635
-1	6221	0.25936975362357817
-1	5411	0.25916688444101754
-1	1933	0.25916688444101754
-1	2232	0.25915947042285525
-1	2024	0.2588975677756329
-1	810	0.2587279311056784
-1	2155	0.2586661631133937
-1	3440	0.2586661631133937
-1	4651	0.25815905134241257
-1	1668	0.2579605676258091
-1	4190	0.25786374698016845
-1	4428	0.25786374698016845
-1	5121	0.2576186836290878
-1	2588	0.2576122504003704
-1	3305	0.2570912339989989
-1	123	0.25705292204755864
-1	5948	0.2569414478367639
-1	300	0.25665388759861263
-1	3151	0.2564765687102196
-1	5186	0.25640435326881866
-1	184	0.2561259130815865
-1	3464	0.2560048320552604
-1	4576	0.2559911526574736
-1	3630	0.2559911526574736
-1	5260	0.2557488089730734
-1	6242	0.2557488089730734
-1	3348	0.25528250742297637
-1	633	0.25460475188701925
-1	4347	0.2544593026925114
-1	6095	0.2544593026925114
-1	5892	0.2543105677165041
-1	5435	0.2543105677165041
-1	3400	0.2543105677165041
-1	6202	0.2542522742605852
-1	3851	0.25414551663270163
-1	3509	0.2540599410434239
-1	2382	0.25364608699873736
-1	1966	0.252179449515297
-1	2153	0.2519274381175042
-1	5968	0.25142503777471653
-1	3286	0.251289004008731
-1	2585	0.2512348411286865
-1	5728	0.2509388353363839
-1	1182	0.2509388353363839
-1	1436	0.25075958168458146
-1	4448	0.2503636638582033
-1	2060	0.2503636638582033
-1	3906	0.2503636638582033
-1	6029	0.2498592434153201
-1	3147	0.24980075894925433
-1	3371	0.24976608748802107
-1	1910	0.24938457383530818
-1	6040	0.24927574180075335
-1	498	0.24898696927438402
-1	1920	0.24890600641297625
-1	1879	0.24876163842098215
-1	2641	0.24866065121155098
-1	3815	0.24842825871261004
-1	4609	0.2480549040422019
-1	2958	0.24797142578670317
-1	3964	0.2478696772489315
-1	6097	0.24754987965175948
-1	1912	0.24746330495346186
-1	634	0.24741851070551749
-1	3892	0.24741851070551749
-1	2340	0.2472848490942447
-1	2136	0.2472848490942447
-1	2103	0.2469001474866658
-1	657	0.24660024999363137
-1	1079	0.2461120437411896
-1	1800	0.24605098135424266
-1	3368	0.24605098135424266
-1	2082	0.24605098135424266
-1	5982	0.24592265269973904
-1	1021	0.24592265269973904
-1	5810	0.2457923021570877
-1	5392	0.2457923021570877
-1	5487	0.2457642423158761
-1	3912	0.24545598543408212
-1	796	0.2448501843192438
-1	2735	0.24484227965657193
-1	4056	0.2448279793449394
-1	614	0.24456502363921026
-1	2610	0.24454311436480292
-1	2374	0.24438205630749602
-1	3976	0.24428239252333833
-1	6141	0.24418228593178626
-1	6350	0.24418228593178626
-1	249	0.2440622093591036
-1	5940	0.24395853728393188
-1	2078	0.24361971975154656
-1	4153	0.24352246383440426
-1	1248	0.24344978428235678
-1	4309	0.24313772976713677
-1	3523	0.24313772976713677
-1	4520	0.24307468323619466
-1	2794	0.24307468323619466
-1	912	0.24307468323619466
-1	5240	0.2430439587062592
-1	2685	0.2430365720263811
-1	4863	0.24300623293877394
-1	3208	0.24265042545041926
-1	5822	0.24261313422910366
-1	6276	0.24227785955038691
-1	3030	0.24193022205684842
-1	4528	0.2418684535337341
-1	1118	0.2418684535337341
-1	2453	0.2418170843891455
-1	4512	0.2417148044407083
-1	4927	0.2417148044407083
-1	1609	0.2414320354867359
-1	4079	0.2414320354867359
-1	3546	0.2414320354867359
-1	4418	0.24139086707894417
-1	5863	0.24093982950323653
-1	2688	0.24062620042081653
-1	5152	0.24028467528422195
-1	1873	0.24014671178485505
-1	4208	0.24014671178485505
-1	5195	0.24014671178485505
-1	5676	0.2398549030469371
-1	5421	0.2398549030469371
-1	5262	0.2398549030469371
-1	4685	0.23980380549217464
-1	4766	0.23980380549217464
-1	4178	0.23980380549217464
-1	4415	0.23980380549217464
-1	5556	0.23980380549217464
-1	3219	0.23980380549217464
-1	6002	0.23980380549217464
-1	2235	0.23980380549217464
-1	4058	0.23980380549217464
-1	6377	0.23980380549217464
-1	3197	0.239758150558076
-1	2388	0.23968475408842146
-1	4744	0.23965822023465994
-1	5871	0.23946123849592685
-1	5423	0.23902088756126738
-1	533	0.23891212174458945
-1	1639	0.2385214241113679
-1	1212	0.2385214241113679
-1	3316	0.2385214241113679
-1	5135	0.2385214241113679
-1	3455	0.2385214241113679
-1	5009	0.2385214241113679
-1	6137	0.2385214241113679
-1	3167	0.2385214241113679
-1	5762	0.23849502621907986
-1	4721	0.23788437026381123
-1	4493	0.23782043424828897
-1	2660	0.2372143125647268
-1	3307	0.23717908186265724
-1	3207	0.23697541514178205
-1	3064	0.23681653466932703
-1	1755	0.23651036799961184
-1	6355	0.23651036799961184
-1	426	0.2362566785404079
-1	2454	0.2359892733923984
-1	5131	0.2359102365332252
-1	5196	0.2359102365332252
-1	47	0.23514349822345132
-1	6130	0.23473432563004337
-1	2158	0.23459041427700522
-1	1682	0.2344946242715937
-1	3149	0.23441347157445883
-1	2949	0.2344114830050272
-1	1886	0.2337175381063027
-1	2084	0.23371138521466164
-1	2462	0.23362459750604447
-1	1992	0.2334010880520065
-1	1252	0.2332463534763777
-1	5264	0.2332463534763777
-1	2748	0.2331444060479004
-1	6375	0.23297205919332017
-1	6135	0.23290138127026236
-1	3036	0.23270493711363913
-1	816	0.23253955954642067
-1	990	0.23246286553250808
-1	1227	0.23246286553250808
-1	3275	0.23246286553250808
-1	3585	0.23246286553250808
-1	1042	0.23243277646782062
-1	5149	0.23243277646782062
-1	3123	0.23243277646782062
-1	5943	0.23231470783061456
-1	5793	0.23186705243674038
-1	1131	0.23178924721677716
-1	2606	0.23178924721677716
-1	515	0.23164167907738067
-1	2821	0.23141121354790675
-1	2512	0.23141121354790675
-1	670	0.23141121354790675
-1	6129	0.23141121354790675
-1	3112	0.23141121354790675
-1	2815	0.231316785903661
-1	6119	0.231316785903661
-1	3139	0.2312544037951991
-1	1082	0.23124224844099855
-1	5498	0.23124224844099855
-1	3763	0.2310818668728147
-1	505	0.23067029469569203
-1	1602	0.23058734350751012
-1	2738	0.23026367467036304
-1	5878	0.22992236317151213
-1	4357	0.22992236317151213
-1	4407	0.2297684213701572
-1	74	0.22923838785540754
-1	5542	0.22911588680483638
-1	4991	0.22911588680483638
-1	4396	0.2290493797074409
-1	5964	0.2290078192494169
-1	496	0.22842084222197312
-1	6147	0.22840278301410036
-1	4992	0.22840278301410036
-1	6004	0.22828495507599866
-1	497	0.22819415290941353
-1	2032	0.22819415290941353
-1	1919	0.22819415290941353
-1	4350	0.22801029463104303
-1	4266	0.22761332337955786
-1	5523	0.2274607254478508
-1	5177	0.22685261195188816
-1	3855	0.22674260625442783
-1	4362	0.22658532470512432
-1	2057	0.22548981088361503
-1	1574	0.22545761106268064
-1	5090	0.22542108852778606
-1	3163	0.22542108852778606
-1	9	0.22541686477270675
-1	661	0.22523711472147723
-1	1074	0.2250410106721292
-1	1991	0.22486046740313442
-1	1122	0.22484348503549373
-1	4115	0.2239147677203267
-1	4903	0.22387300050410983
-1	4202	0.22387300050410983
-1	4889	0.22341538398849647
-1	5283	0.22341538398849647
-1	6229	0.22341538398849647
-1	2085	0.22341538398849647
-1	6104	0.22341538398849647
-1	6102	0.22341538398849647
-1	6380	0.22341538398849647
-1	2003	0.2231233629176713
-1	2161	0.22199427453907358
-1	5870	0.22136435985650565
-1	5903	0.22095207473052916
-1	6120	0.22095207473052916
-1	6103	0.22095207473052916
-1	5217	0.22075872470706062
-1	1422	0.2205524937793777
-1	5797	0.2205524937793777
-1	4843	0.2200901647774256
-1	2487	0.2200901647774256
-1	4706	0.22008102588019368
-1	2930	0.22008102588019368
-1	4701	0.22008102588019368
-1	4681	0.22008102588019368
-1	4670	0.22008102588019368
-1	4689	0.22008102588019368
-1	1723	0.22008102588019368
-1	457	0.22008102588019368
-1	1796	0.22008102588019368
-1	1774	0.22008102588019368
-1	1775	0.22008102588019368
-1	489	0.22008102588019368
-1	4935	0.22008102588019368
-1	4901	0.22008102588019368
-1	4824	0.22008102588019368
-1	4808	0.22008102588019368
-1	1565	0.22008102588019368
-1	4733	0.22008102588019368
-1	1416	0.22008102588019368
-1	5746	0.22008102588019368
-1	4268	0.22008102588019368
-1	5791	0.22008102588019368
-1	1333	0.22008102588019368
-1	1362	0.22008102588019368
-1	1320	0.22008102588019368
-1	853	0.22008102588019368
-1	2336	0.22008102588019368
-1	4120	0.22008102588019368
-1	5627	0.22008102588019368
-1	4156	0.22008102588019368
-1	4424	0.22008102588019368
-1	2656	0.22008102588019368
-1	4379	0.22008102588019368
-1	2573	0.22008102588019368
-1	5415	0.22008102588019368
-1	6009	0.22008102588019368
-1	4044	0.22008102588019368
-1	4038	0.22008102588019368
-1	4004	0.22008102588019368
-1	4090	0.22008102588019368
-1	4076	0.22008102588019368
-1	3548	0.22008102588019368
-1	6186	0.22008102588019368
-1	6111	0.22008102588019368
-1	2044	0.22008102588019368
-1	6128	0.22008102588019368
-1	6384	0.22008102588019368
-1	6385	0.22008102588019368
-1	3785	0.22008102588019368
-1	4997	0.22008102588019368
-1	3999	0.22008102588019368
-1	1923	0.22008102588019368
-1	1507	0.21981089922987482
-1	2765	0.21981089922987482
-1	5267	0.21981089922987482
-1	1986	0.21979554735234916
-1	624	0.21915846331051736
-1	1594	0.21869663572890102
-1	1566	0.21869663572890102
-1	1550	0.21869663572890102
-1	1424	0.21869663572890102
-1	2475	0.21869663572890102
-1	1334	0.21869663572890102
-1	5640	0.21869663572890102
-1	4444	0.21869663572890102
-1	2140	0.21869663572890102
-1	5292	0.21869663572890102
-1	152	0.21805191048767025
-1	3778	0.2180091621094288
-1	3000	0.21769853407946638
-1	4141	0.2175389590833422
-1	4152	0.2173569992610521
-1	2764	0.2173569992610521
-1	5598	0.2173569992610521
-1	5108	0.2173569992610521
-1	2065	0.2173569992610521
-1	3752	0.2173569992610521
-1	273	0.21669433662703522
-1	336	0.21616359469218602
-1	5929	0.21598348620974056
-1	5308	0.21598348620974056
-1	2142	0.21598348620974056
-1	2048	0.21598348620974056
-1	5402	0.2155606608849693
-1	2296	0.2155606608849693
-1	1727	0.2155062100011913
-1	695	0.21531360349721224
-1	4162	0.2152669433696411
-1	817	0.2152642404621636
-1	1225	0.2151611243772111
-1	1226	0.2151611243772111
-1	3274	0.2151611243772111
-1	1614	0.2147327583060669
-1	6205	0.2147327583060669
-1	2826	0.2146127327918881
-1	4074	0.2146109811948078
-1	4725	0.2141842034957304
-1	4137	0.2141842034957304
-1	6170	0.2141842034957304
-1	2042	0.2141842034957304
-1	3146	0.2141842034957304
-1	780	0.213767512125387
-1	4020	0.21363923337813143
-1	3335	0.21351925563819033
-1	2489	0.21338492120305205
-1	245	0.21311934292838752
-1	5116	0.21311934292838752
-1	2008	0.21270348898749986
-1	2787	0.21263399124657512
-1	4797	0.21263399124657512
-1	5654	0.21263399124657512
-1	3310	0.21263399124657512
-1	6107	0.21263399124657512
-1	5029	0.21263399124657512
-1	5166	0.21258721759696217
-1	2863	0.2125871235498497
-1	5976	0.21241825229396144
-1	5772	0.21241825229396144
-1	1489	0.21226933715867882
-1	6093	0.21226933715867882
-1	664	0.21224562095024677
-1	2206	0.21224562095024677
-1	5243	0.21184220485496996
-1	2152	0.21180425411575643
-1	3206	0.21180425411575643
-1	5069	0.21180425411575643
-1	3303	0.21143221415943025
-1	267	0.20983239131294557
-1	5820	0.20927667304752906
-1	5091	0.20858128336456194
-1	5013	0.20843302327980523
-1	2495	0.2081872130958923
-1	909	0.20800518912752605
-1	2306	0.2078117051817192
-1	3779	0.20768272309938401
-1	6121	0.20761415125896365
-1	6363	0.20683192820563157
-1	1145	0.20672154021759856
-1	2274	0.20619141374292618
-1	5075	0.206176641199793
-1	4815	0.20608003973305206
-1	438	0.2056291621377627
-1	6003	0.2055927155826855
-1	5572	0.20548415405384882
-1	125	0.20538083747707064
-1	4248	0.20532837071009305
-1	2099	0.20532837071009305
-1	1963	0.20503523038192914
-1	5011	0.20502384383672015
-1	4111	0.2050023338785683
-1	1634	0.20477773285906983
-1	1730	0.20475820343321227
-1	6092	0.20475820343321227
-1	4023	0.20475820343321227
-1	3458	0.20475820343321227
-1	3182	0.20475820343321227
-1	5203	0.20448222321521878
-1	1007	0.20438443104232293
-1	733	0.20414334573405352
-1	6238	0.20401482114987626
-1	4229	0.20394151382324502
-1	1676	0.20389544251625416
-1	6047	0.2038179121531797
-1	6155	0.2038179121531797
-1	2864	0.20373887795194448
-1	2832	0.20355196470556522
-1	6025	0.20354543427275343
-1	4807	0.20304725747916255
-1	1813	0.20296551066948768
-1	5632	0.20282654948356932
-1	1860	0.20280641386459322
-1	4621	0.20280641386459322
-1	478	0.20280641386459322
-1	1484	0.20280641386459322
-1	4317	0.20280641386459322
-1	2203	0.20280641386459322
-1	6259	0.20280641386459322
-1	5194	0.20280641386459322
-1	1943	0.20280641386459322
-1	5634	0.20274544609803077
-1	3174	0.20274544609803077
-1	4005	0.20257076339851474
-1	4530	0.20196600494274297
-1	5564	0.20183111372643914
-1	593	0.2017250361936657
-1	576	0.20154180295581306
-1	1731	0.2014227110420919
-1	4803	0.2014227110420919
-1	5681	0.2014227110420919
-1	5490	0.2014227110420919
-1	5163	0.2014227110420919
-1	3108	0.2014227110420919
-1	4207	0.2013654364190913
-1	5755	0.2013654364190913
-1	1232	0.2013654364190913
-1	5160	0.2013654364190913
-1	2017	0.2013654364190913
-1	3725	0.2013654364190913
-1	3914	0.2013654364190913
-1	400	0.20132205299241238
-1	6060	0.2012759829119633
-1	4711	0.2012741415156688
-1	4613	0.2012741415156688
-1	4645	0.2012741415156688
-1	2860	0.2012741415156688
-1	1743	0.2012741415156688
-1	1739	0.2012741415156688
-1	2791	0.2012741415156688
-1	4899	0.2012741415156688
-1	4882	0.2012741415156688
-1	5949	0.2012741415156688
-1	4776	0.2012741415156688
-1	4231	0.2012741415156688
-1	5643	0.2012741415156688
-1	2328	0.2012741415156688
-1	4417	0.2012741415156688
-1	6070	0.2012741415156688
-1	6026	0.2012741415156688
-1	6030	0.2012741415156688
-1	5271	0.2012741415156688
-1	4016	0.2012741415156688
-1	6248	0.2012741415156688
-1	6234	0.2012741415156688
-1	4093	0.2012741415156688
-1	5158	0.2012741415156688
-1	6132	0.2012741415156688
-1	3681	0.2012741415156688
-1	3675	0.2012741415156688
-1	3631	0.2012741415156688
-1	3726	0.2012741415156688
-1	3905	0.2012741415156688
-1	6096	0.20116882391675875
-1	3789	0.2010715984713898
-1	1740	0.20095695842538774
-1	4557	0.20095695842538774
-1	5816	0.20095695842538774
-1	4232	0.20095695842538774
-1	1263	0.20095695842538774
-1	2590	0.20095695842538774
-1	4364	0.20095695842538774
-1	2551	0.20095695842538774
-1	2273	0.20095695842538774
-1	2276	0.20095695842538774
-1	4094	0.20095695842538774
-1	6125	0.20095695842538774
-1	3757	0.20095695842538774
-1	6343	0.20095695842538774
-1	1981	0.20088303827163115
-1	455	0.20073471047726968
-1	2445	0.20073471047726968
-1	2386	0.2005371830879312
-1	5821	0.20035631728883113
-1	4308	0.20035631728883113
-1	1159	0.20018254261730375
-1	4163	0.20014685692457457
-1	153	0.20014685692457457
-1	1275	0.1999330064201708
-1	1895	0.19985336303679352
-1	4883	0.19985336303679352
-1	5934	0.19985336303679352
-1	4727	0.19985336303679352
-1	5869	0.19985336303679352
-1	2503	0.19985336303679352
-1	2707	0.19985336303679352
-1	5431	0.19985336303679352
-1	5488	0.19985336303679352
-1	6059	0.19985336303679352
-1	4008	0.19985336303679352
-1	3450	0.19985336303679352
-1	2229	0.19981297517672714
-1	4743	0.19973736850823856
-1	1592	0.19948545278833957
-1	2467	0.19948545278833957
-1	5057	0.19948545278833957
-1	3748	0.19948545278833957
-1	3828	0.19948545278833957
-1	1801	0.19942827491102755
-1	6094	0.1992247020147762
-1	1830	0.1989811733434525
-1	3504	0.1989811733434525
-1	1899	0.1988441781167286
-1	1294	0.1988441781167286
-1	4325	0.1987293177561011
-1	4028	0.196316751892096
-1	1349	0.19588366891312073
-1	3584	0.19578523579784066
-1	2980	0.1956108463075408
-1	5956	0.19555846012638314
-1	5925	0.19554723816681202
-1	5668	0.19554723816681202
-1	4558	0.1953374157879039
-1	5914	0.1953374157879039
-1	5920	0.1953374157879039
-1	4750	0.1953374157879039
-1	2537	0.1953374157879039
-1	612	0.1953374157879039
-1	5317	0.1953374157879039
-1	6023	0.1953374157879039
-1	5007	0.1953374157879039
-1	3885	0.1953374157879039
-1	3890	0.1953374157879039
-1	4584	0.19532546593360042
-1	2772	0.19525873301114693
-1	3501	0.19525873301114693
-1	5776	0.19509316042137956
-1	6361	0.19485440056167813
-1	5278	0.1943943981374108
-1	3136	0.19426814715514684
-1	1590	0.19422426148089783
-1	4295	0.19419119704445897
-1	2796	0.19394112761571589
-1	5827	0.19394112761571589
-1	2447	0.19394112761571589
-1	4442	0.19394112761571589
-1	3817	0.19394112761571589
-1	3882	0.19394112761571589
-1	5351	0.1938024417158946
-1	4729	0.19372512880211257
-1	1050	0.19372512880211257
-1	5924	0.1936787644900781
-1	2508	0.19355556577859795
-1	5479	0.19347731772029092
-1	3572	0.19347731772029092
-1	5850	0.19337961956490052
-1	4230	0.19337961956490052
-1	2754	0.19337961956490052
-1	5437	0.19337961956490052
-1	6022	0.19337961956490052
-1	3229	0.19337961956490052
-1	6054	0.19337961956490052
-1	5109	0.19337961956490052
-1	5107	0.19337961956490052
-1	2095	0.19337961956490052
-1	3678	0.19337961956490052
-1	3634	0.19337961956490052
-1	3816	0.19337961956490052
-1	4461	0.1930124507190777
-1	4830	0.19226311895943826
-1	2221	0.19226311895943826
-1	1045	0.19199147877292572
-1	2139	0.19198421691952114
-1	770	0.1918099078735116
-1	1946	0.19155845869556923
-1	4628	0.1915464200662725
-1	4682	0.1915464200662725
-1	5799	0.1915464200662725
-1	2066	0.1915464200662725
-1	4551	0.19127366875027219
-1	5579	0.1910711054987714
-1	2785	0.1910139625696246
-1	2813	0.1909306659653539
-1	5596	0.1909306659653539
-1	5291	0.1909306659653539
-1	3489	0.19083367322503395
-1	2944	0.19053104183202718
-1	4460	0.19053104183202718
-1	119	0.19009472698027124
-1	2767	0.18970209785042783
-1	4742	0.1894554346256252
-1	1083	0.1894554346256252
-1	5346	0.1894554346256252
-1	2054	0.1894554346256252
-1	2856	0.18933802614424364
-1	5429	0.18933802614424364
-1	6082	0.18933802614424364
-1	203	0.18909872989874113
-1	5215	0.18866170027461543
-1	5478	0.18849736472049852
-1	3688	0.18849736472049852
-1	3988	0.18849736472049852
-1	4855	0.18836732117028468
-1	1531	0.18831502476791456
-1	5569	0.18828743063416675
-1	5995	0.1873124740423357
-1	4559	0.18720707921271224
-1	5963	0.18684449759099414
-1	1180	0.18636348726570434
-1	1878	0.18617848254664626
-1	1272	0.185887640029615
-1	2308	0.18587275576350665
-1	2321	0.18567722867061262
-1	6106	0.18559641273817673
-1	3972	0.18477199655342785
-1	2839	0.1841362902601309
-1	2009	0.18411066465421783
-1	4575	0.18399539722597863
-1	4236	0.18399539722597863
-1	6065	0.1833119394484167
-1	3800	0.18319724406639049
-1	4534	0.18318586173250714
-1	5440	0.18318586173250714
-1	4603	0.1830341584687622
-1	6374	0.1830341584687622
-1	6177	0.1829255005793227
-1	5752	0.18276718126863692
-1	4471	0.18276681377520376
-1	247	0.18266574598960011
-1	2877	0.1825081120536224
-1	5736	0.1825081120536224
-1	1383	0.1825081120536224
-1	6122	0.1825081120536224
-1	4468	0.18223888457747695
-1	429	0.18210633530463233
-1	4932	0.18210633530463233
-1	6334	0.18210633530463233
-1	5590	0.18206607623730087
-1	2690	0.18204055514991815
-1	5893	0.18160871022388422
-1	4220	0.18153920004664673
-1	3461	0.18153920004664673
-1	2067	0.1812850529019036
-1	2510	0.18093456295104104
-1	6037	0.18079390851155558
-1	5399	0.1804877127893247
-1	3916	0.1804877127893247
-1	2446	0.18047568968713482
-1	3187	0.17991582414223523
-1	724	0.1797064979617571
-1	1139	0.17962510535491016
-1	3241	0.17962510535491016
-1	3418	0.17962510535491016
-1	5603	0.17904357155360465
-1	4123	0.17902048158005374
-1	4140	0.1787472298655793
-1	1067	0.1787472298655793
-1	3514	0.1787472298655793
-1	663	0.1787440416672315
-1	3245	0.17850529097234552
-1	1956	0.17841963697502133
-1	3204	0.17817598291272524
-1	5909	0.17763184754401762
-1	4668	0.1775869104357336
-1	5950	0.1775869104357336
-1	1179	0.17729012454698345
-1	5316	0.17729012454698345
-1	5071	0.17729012454698345
-1	1872	0.17728636368901418
-1	5992	0.17728636368901418
-1	2041	0.17728636368901418
-1	1326	0.17717719307953594
-1	653	0.17717719307953594
-1	1092	0.17717719307953594
-1	5211	0.17717719307953594
-1	4612	0.17687057776102333
-1	4692	0.17687057776102333
-1	4501	0.17687057776102333
-1	4842	0.17687057776102333
-1	4225	0.17687057776102333
-1	2360	0.17687057776102333
-1	1230	0.17687057776102333
-1	4402	0.17687057776102333
-1	2209	0.17687057776102333
-1	3454	0.17687057776102333
-1	5078	0.17687057776102333
-1	3122	0.17687057776102333
-1	5010	0.17683340820147436
-1	4646	0.17673203790823142
-1	4848	0.17619349235868115
-1	3430	0.17618885153820343
-1	5910	0.17611039177983837
-1	4083	0.17595135774802073
-1	4884	0.1758026902315614
-1	5637	0.1758026902315614
-1	3432	0.17574160410492984
-1	1771	0.17571908523275692
-1	2858	0.1754718556117982
-1	4874	0.1754718556117982
-1	299	0.1754718556117982
-1	2729	0.1754718556117982
-1	3225	0.1754718556117982
-1	5207	0.1754718556117982
-1	6284	0.1754718556117982
-1	4095	0.1754718556117982
-1	5064	0.1754718556117982
-1	4970	0.1754718556117982
-1	3070	0.1754718556117982
-1	5750	0.1753753047719123
-1	1988	0.1753753047719123
-1	441	0.17533995731563687
-1	4898	0.17533995731563687
-1	835	0.17533995731563687
-1	876	0.17533995731563687
-1	2633	0.17530436897287674
-1	3439	0.17510936992733453
-1	4905	0.17500542781308925
-1	4116	0.17500542781308925
-1	5648	0.17500542781308925
-1	2833	0.17493446471896368
-1	2444	0.17493446471896368
-1	5723	0.17493446471896368
-1	4285	0.17493446471896368
-1	2747	0.17493446471896368
-1	3220	0.17493446471896368
-1	2204	0.17493446471896368
-1	1778	0.1749206850991229
-1	1279	0.1749206850991229
-1	5381	0.17489642786145407
-1	4224	0.17478894685378768
-1	930	0.174637263524175
-1	5693	0.174637263524175
-1	6150	0.174637263524175
-1	6126	0.174637263524175
-1	3886	0.174637263524175
-1	3486	0.17460345797029575
-1	3437	0.17460345797029575
-1	2287	0.17458315935461222
-1	4614	0.17445744980305686
-1	4107	0.17445744980305686
-1	5923	0.1743745207143198
-1	5509	0.1743745207143198
-1	2115	0.1743745207143198
-1	1229	0.17424097623782375
-1	2763	0.17406330406550158
-1	3233	0.1737512960607616
-1	2279	0.17368677642596095
-1	304	0.17363726272724422
-1	4902	0.17349863102871857
-1	4895	0.17349863102871857
-1	5843	0.17349863102871857
-1	5807	0.17349863102871857
-1	5754	0.17349863102871857
-1	4240	0.17349863102871857
-1	2472	0.17349863102871857
-1	4278	0.17349863102871857
-1	4279	0.17349863102871857
-1	5778	0.17349863102871857
-1	5518	0.17349863102871857
-1	5576	0.17349863102871857
-1	652	0.17349863102871857
-1	5345	0.17349863102871857
-1	2160	0.17349863102871857
-1	5272	0.17349863102871857
-1	6285	0.17349863102871857
-1	2016	0.17349863102871857
-1	3534	0.17349863102871857
-1	3833	0.17349863102871857
-1	2351	0.1734054361531355
-1	6174	0.1734054361531355
-1	2029	0.17297102208732568
-1	880	0.1723850370050453
-1	3043	0.17211999111250761
-1	6019	0.17208586340403623
-1	6011	0.17208586340403623
-1	3744	0.17188931459409035
-1	913	0.17179860390388993
-1	483	0.17164717321976228
-1	4054	0.17164717321976228
-1	3052	0.17148485374887598
-1	2072	0.17121294246929927
-1	5561	0.17094599674298397
-1	6163	0.17094599674298397
-1	1582	0.1705064260264229
-1	2112	0.1704148413356095
-1	2749	0.17041278335460772
-1	1549	0.17037466400375537
-1	2580	0.17022252171905353
-1	1052	0.17022252171905353
-1	1692	0.17002433749002632
-1	1318	0.17002433749002632
-1	5852	0.17000107044211482
-1	1310	0.16997383061787555
-1	3005	0.16997383061787555
-1	3925	0.16997383061787555
-1	4108	0.16979660335304012
-1	2616	0.1693592941431379
-1	5471	0.1693592941431379
-1	1496	0.1689468236862931
-1	1562	0.16892814266017467
-1	3007	0.1689047517666924
-1	66	0.16870779535361277
-1	1192	0.16848621423133717
-1	1163	0.16838568015084834
-1	1483	0.16763893081307862
-1	980	0.16763893081307862
-1	787	0.16763893081307862
-1	5159	0.16763893081307862
-1	6243	0.1675868618706642
-1	5451	0.16740318989420658
-1	1554	0.16684350109351462
-1	4749	0.16630656464841043
-1	1976	0.16630656464841043
-1	4128	0.16620232441262275
-1	124	0.1659093311941512
-1	1924	0.16567749859585937
-1	361	0.16540741245867285
-1	1063	0.16520148775475263
-1	3506	0.16518224895972697
-1	1855	0.164889741221104
-1	3792	0.16449860353743564
-1	6340	0.16449860353743564
-1	3024	0.16449860353743564
-1	1888	0.1644695997392898
-1	4368	0.16442923358875677
-1	2490	0.1643613877486252
-1	1016	0.16406337677471658
-1	6373	0.16406337677471658
-1	3666	0.16386338409200682
-1	5138	0.163618698505977
-1	389	0.16330583064361975
-1	2364	0.16327664705591086
-1	4920	0.16301178747595496
-1	2899	0.16296428324562595
-1	2119	0.16249208433475587
-1	445	0.1621609987209124
-1	1637	0.1621609987209124
-1	3639	0.1621150918692504
-1	4955	0.16197521962374709
-1	5813	0.16197521962374709
-1	4122	0.16197521962374709
-1	2310	0.16197521962374709
-1	4345	0.16197521962374709
-1	2181	0.16197521962374709
-1	3595	0.1618247341119093
-1	4007	0.161658175407199
-1	5236	0.1616408502527768
-1	4819	0.1616058010828391
-1	2781	0.1616058010828391
-1	4435	0.1616058010828391
-1	6196	0.1616058010828391
-1	3772	0.1616058010828391
-1	3936	0.1616058010828391
-1	4143	0.16127849249860005
-1	4341	0.16103541302301394
-1	6336	0.16103541302301394
-1	5686	0.16091412319961002
-1	36	0.160535791683849
-1	3342	0.1603091540462131
-1	4686	0.16017787563980557
-1	5751	0.16006683992793155
-1	5689	0.16006683992793155
-1	2731	0.16006683992793155
-1	5466	0.16006683992793155
-1	3453	0.16006683992793155
-1	2076	0.16006683992793155
-1	3137	0.16006683992793155
-1	1941	0.16006683992793155
-1	4349	0.1600183904577533
-1	4363	0.1598757662969074
-1	4281	0.15984190539675083
-1	974	0.159589424052874
-1	2432	0.159589424052874
-1	2693	0.159589424052874
-1	2571	0.159589424052874
-1	2568	0.159589424052874
-1	6152	0.159589424052874
-1	6144	0.159589424052874
-1	3051	0.159589424052874
-1	3145	0.159589424052874
-1	5310	0.15936173555522382
-1	3814	0.15936173555522382
-1	3891	0.15936173555522382
-1	1884	0.15923460627689717
-1	1254	0.15919379210256268
-1	4790	0.15906862220834578
-1	4101	0.15906862220834578
-1	5991	0.15902054334316426
-1	4339	0.15902054334316426
-1	5422	0.15902054334316426
-1	2238	0.15882036918524023
-1	2428	0.15864746223887963
-1	2258	0.15864746223887963
-1	6156	0.15864746223887963
-1	4019	0.1585558882446222
-1	4860	0.15850663614746338
-1	4572	0.15821483391135266
-1	1210	0.15813978781391705
-1	3747	0.1580620201989694
-1	161	0.1579538846616518
-1	5161	0.15794427847498851
-1	3933	0.15794427847498851
-1	751	0.15788478874818723
-1	4547	0.15777517269178168
-1	4959	0.15777517269178168
-1	368	0.15777517269178168
-1	4241	0.15777517269178168
-1	5716	0.15777517269178168
-1	5623	0.15777517269178168
-1	3508	0.15777517269178168
-1	3515	0.15777517269178168
-1	5054	0.15777517269178168
-1	5074	0.15777517269178168
-1	3706	0.15777517269178168
-1	3771	0.15777517269178168
-1	3183	0.15777517269178168
-1	925	0.15769577494694625
-1	852	0.15769577494694625
-1	2267	0.15760813228653894
-1	2212	0.15735927037871913
-1	1557	0.15674365224307624
-1	323	0.15640996301248425
-1	1646	0.15640996301248425
-1	5990	0.15640996301248425
-1	1530	0.15640996301248425
-1	1490	0.15640996301248425
-1	2478	0.15640996301248425
-1	4262	0.15640996301248425
-1	4106	0.15640996301248425
-1	5694	0.15640996301248425
-1	763	0.15640996301248425
-1	5410	0.15640996301248425
-1	5376	0.15640996301248425
-1	2121	0.15640996301248425
-1	3277	0.15640996301248425
-1	2196	0.15640996301248425
-1	2202	0.15640996301248425
-1	2277	0.15640996301248425
-1	3491	0.15640996301248425
-1	5164	0.15640996301248425
-1	5183	0.15640996301248425
-1	5065	0.15640996301248425
-1	3724	0.15640996301248425
-1	3935	0.15640996301248425
-1	1999	0.15640996301248425
-1	5053	0.15631628664030486
-1	3396	0.15623761667403563
-1	4507	0.1558681483573768
-1	4223	0.1558681483573768
-1	4235	0.1558681483573768
-1	2352	0.1558681483573768
-1	5309	0.1558681483573768
-1	3485	0.1558681483573768
-1	1951	0.1558681483573768
-1	1714	0.1557719906031182
-1	4305	0.1557719906031182
-1	6258	0.1557719906031182
-1	904	0.15576701146009087
-1	4125	0.1557310728549553
-1	4573	0.15555411625403603
-1	2226	0.15549658970569694
-1	2227	0.15549658970569694
-1	4747	0.15548391657644736
-1	3512	0.15547269182950404
-1	3948	0.15521950296264647
-1	5774	0.15514938788967703
-1	2636	0.1551081172214212
-1	3304	0.15497087891246114
-1	4940	0.15458427960712862
-1	2620	0.15458427960712862
-1	3165	0.15458427960712862
-1	4821	0.15447875023952298
-1	4403	0.15447875023952298
-1	6195	0.15447875023952298
-1	673	0.15434868364628967
-1	2840	0.15423831598575474
-1	5670	0.1541785959774031
-1	3762	0.15416611587892629
-1	3346	0.15410984113597007
-1	1527	0.15409003764658763
-1	1640	0.15399708592791372
-1	5921	0.15399708592791372
-1	929	0.15399708592791372
-1	928	0.15399708592791372
-1	2380	0.15399708592791372
-1	1250	0.15399708592791372
-1	4494	0.15399708592791372
-1	1023	0.15399708592791372
-1	6241	0.15399708592791372
-1	4089	0.15399708592791372
-1	6175	0.15399708592791372
-1	2056	0.15399708592791372
-1	3818	0.15399708592791372
-1	3171	0.15399708592791372
-1	210	0.1538147541932325
-1	5133	0.153729986730643
-1	3049	0.153729986730643
-1	3381	0.15371876829018738
-1	4666	0.15363327810750446
-1	4805	0.15337999740116645
-1	3819	0.15337999740116645
-1	4941	0.15330373534060632
-1	6273	0.15330373534060632
-1	6027	0.15281111345972975
-1	1460	0.15275674381970808
-1	4570	0.15244434456580497
-1	4644	0.15242179639984638
-1	4504	0.15242179639984638
-1	3876	0.15242179639984638
-1	3325	0.1524205059382804
-1	5372	0.1523392666046547
-1	5541	0.1522749312659867
-1	4117	0.15214292512866054
-1	4533	0.15186972797299284
-1	1620	0.15186972797299284
-1	5759	0.15186972797299284
-1	4259	0.15186972797299284
-1	1316	0.15186972797299284
-1	1164	0.15186972797299284
-1	3247	0.15186972797299284
-1	4629	0.15179339268948958
-1	2801	0.15179339268948958
-1	1735	0.15179339268948958
-1	4922	0.15179339268948958
-1	5815	0.15179339268948958
-1	946	0.15179339268948958
-1	4103	0.15179339268948958
-1	2301	0.15179339268948958
-1	2696	0.15179339268948958
-1	4485	0.15179339268948958
-1	4321	0.15179339268948958
-1	5390	0.15179339268948958
-1	3362	0.15179339268948958
-1	6235	0.15179339268948958
-1	6159	0.15179339268948958
-1	3939	0.15176246890078435
-1	3086	0.15175585945621572
-1	1846	0.15172623297646315
-1	1788	0.15139985948048468
-1	5321	0.1512716489185633
-1	4571	0.1512240251980811
-1	4154	0.1510661395727819
-1	4792	0.15100163042788217
-1	4226	0.15094196127407267
-1	4269	0.15094196127407267
-1	2646	0.15094196127407267
-1	6098	0.15094196127407267
-1	5268	0.15094196127407267
-1	3422	0.15094196127407267
-1	3813	0.15094196127407267
-1	3119	0.15094196127407267
-1	156	0.15083576517731823
-1	615	0.15079100341733398
-1	4391	0.1507344966389644
-1	2482	0.15071010853242328
-1	1838	0.15066152030880053
-1	2947	0.15053303245067964
-1	4608	0.15053303245067964
-1	4696	0.15053303245067964
-1	2859	0.15053303245067964
-1	2855	0.15053303245067964
-1	2880	0.15053303245067964
-1	2810	0.15053303245067964
-1	1742	0.15053303245067964
-1	1732	0.15053303245067964
-1	4541	0.15053303245067964
-1	1699	0.15053303245067964
-1	4525	0.15053303245067964
-1	2790	0.15053303245067964
-1	322	0.15053303245067964
-1	1619	0.15053303245067964
-1	1612	0.15053303245067964
-1	4934	0.15053303245067964
-1	4911	0.15053303245067964
-1	4919	0.15053303245067964
-1	4886	0.15053303245067964
-1	4873	0.15053303245067964
-1	5994	0.15053303245067964
-1	5906	0.15053303245067964
-1	5848	0.15053303245067964
-1	5823	0.15053303245067964
-1	298	0.15053303245067964
-1	5811	0.15053303245067964
-1	5889	0.15053303245067964
-1	4290	0.15053303245067964
-1	999	0.15053303245067964
-1	2526	0.15053303245067964
-1	5735	0.15053303245067964
-1	2450	0.15053303245067964
-1	2477	0.15053303245067964
-1	2465	0.15053303245067964
-1	5717	0.15053303245067964
-1	5784	0.15053303245067964
-1	827	0.15053303245067964
-1	1308	0.15053303245067964
-1	2401	0.15053303245067964
-1	2408	0.15053303245067964
-1	5645	0.15053303245067964
-1	4119	0.15053303245067964
-1	5611	0.15053303245067964
-1	762	0.15053303245067964
-1	5519	0.15053303245067964
-1	5535	0.15053303245067964
-1	4438	0.15053303245067964
-1	2624	0.15053303245067964
-1	4399	0.15053303245067964
-1	4388	0.15053303245067964
-1	5409	0.15053303245067964
-1	5404	0.15053303245067964
-1	4303	0.15053303245067964
-1	5419	0.15053303245067964
-1	5433	0.15053303245067964
-1	5477	0.15053303245067964
-1	3293	0.15053303245067964
-1	2120	0.15053303245067964
-1	5311	0.15053303245067964
-1	6013	0.15053303245067964
-1	2168	0.15053303245067964
-1	6058	0.15053303245067964
-1	6049	0.15053303245067964
-1	3354	0.15053303245067964
-1	5263	0.15053303245067964
-1	6283	0.15053303245067964
-1	5182	0.15053303245067964
-1	6179	0.15053303245067964
-1	2089	0.15053303245067964
-1	3582	0.15053303245067964
-1	6138	0.15053303245067964
-1	5040	0.15053303245067964
-1	5066	0.15053303245067964
-1	3689	0.15053303245067964
-1	3790	0.15053303245067964
-1	3755	0.15053303245067964
-1	6328	0.15053303245067964
-1	4964	0.15053303245067964
-1	1998	0.15053303245067964
-1	372	0.15039661774463903
-1	2110	0.1501327902506552
-1	4255	0.1500939888693958
-1	4820	0.15000396266930294
-1	1379	0.1498161151894567
-1	1908	0.14968771532641018
-1	843	0.14967272753773553
-1	4472	0.14960464444146057
-1	5831	0.14958678843177506
-1	5785	0.14958678843177506
-1	86	0.1494577994060041
-1	5652	0.14924564687533554
-1	6014	0.14924564687533554
-1	4617	0.14900236457632557
-1	5156	0.1488573527152386
-1	3660	0.14843980969166484
-1	5224	0.1481897349094173
-1	4057	0.1481897349094173
-1	5928	0.14800727850600334
-1	5595	0.14800727850600334
-1	1983	0.14800727850600334
-1	568	0.14780330351802812
-1	6262	0.14772491293767104
-1	1618	0.14757633964050965
-1	4748	0.14755849381669303
-1	1481	0.14731847716842464
-1	2806	0.1472876369658889
-1	4521	0.1464835591181356
-1	1829	0.14607491006397888
-1	6382	0.1460732281278884
-1	3434	0.1460698245181125
-1	4246	0.145100419082983
-1	5418	0.145100419082983
-1	3324	0.14503342414873654
-1	3176	0.1442717714366044
-1	514	0.14411093513799975
-1	2540	0.1440541417609295
-1	1236	0.14260368620428995
-1	3212	0.14254983365714624
-1	2853	0.14183760148057672
-1	1218	0.1411760975162702
-1	3015	0.14110114158324963
-1	3081	0.14103931098853034
-1	6069	0.140967722685133
-1	2727	0.1405044573543176
-1	4566	0.14049576383111803
-1	63	0.14014570675972765
-1	885	0.14007049693557494
-1	4483	0.1398249982551354
-1	5555	0.1398249982551354
-1	5450	0.1398249982551354
-1	4730	0.1395876553660608
-1	2563	0.1395876553660608
-1	2534	0.13928300106408475
-1	6118	0.13928300106408475
-1	3127	0.13892737793365548
-1	3945	0.13867057148543838
-1	3652	0.13862965706970723
-1	3781	0.13841424891450926
-1	3438	0.13804897825345333
-1	1217	0.13795350248812727
-1	1761	0.13786835327684765
-1	5680	0.13786835327684765
-1	3315	0.13786835327684765
-1	3712	0.13786835327684765
-1	6325	0.13786835327684765
-1	3672	0.13757902139981765
-1	2824	0.1374050437198039
-1	451	0.1374050437198039
-1	4516	0.1374050437198039
-1	2793	0.1374050437198039
-1	4574	0.1374050437198039
-1	342	0.1374050437198039
-1	4949	0.1374050437198039
-1	4270	0.1374050437198039
-1	5548	0.1374050437198039
-1	4397	0.1374050437198039
-1	1001	0.1374050437198039
-1	3291	0.1374050437198039
-1	2237	0.1374050437198039
-1	3551	0.1374050437198039
-1	6158	0.1374050437198039
-1	5021	0.1374050437198039
-1	5068	0.1374050437198039
-1	3717	0.1374050437198039
-1	3776	0.1374050437198039
-1	3072	0.1374050437198039
-1	3862	0.137337325484093
-1	2262	0.1373244289382752
-1	550	0.13727709295836332
-1	5425	0.13723037203154528
-1	2907	0.13720975211953063
-1	4770	0.137131877338639
-1	4531	0.13706173656277743
-1	989	0.13706173656277743
-1	3503	0.13706173656277743
-1	4975	0.13706173656277743
-1	1219	0.1369782707482125
-1	5463	0.13673788388821895
-1	5560	0.1366762415253276
-1	6194	0.1366762415253276
-1	5039	0.1366762415253276
-1	4381	0.13643332246190176
-1	5118	0.13643332246190176
-1	3080	0.13631084925278852
-1	6203	0.13611023971083078
-1	4846	0.1358782673758722
-1	5656	0.13585364236328823
-1	2697	0.13585364236328823
-1	5245	0.13585364236328823
-1	1832	0.13583156207881864
-1	2502	0.13583156207881864
-1	5649	0.13583156207881864
-1	1281	0.13583156207881864
-1	4441	0.13583156207881864
-1	3499	0.13583156207881864
-1	5162	0.13583156207881864
-1	3836	0.13583156207881864
-1	3083	0.13583156207881864
-1	3966	0.13583156207881864
-1	4753	0.13574030303287235
-1	769	0.13571322747584705
-1	1990	0.13541520516955696
-1	2497	0.1353577880639146
-1	2822	0.13531972363469988
-1	4858	0.13531972363469988
-1	4806	0.13531972363469988
-1	4159	0.13531972363469988
-1	4799	0.1352959092427654
-1	5679	0.1352959092427654
-1	1453	0.13488664190466168
-1	2010	0.13477119887162403
-1	4683	0.13460151881950397
-1	2834	0.13460151881950397
-1	1736	0.13460151881950397
-1	5581	0.13460151881950397
-1	1076	0.13460151881950397
-1	5430	0.13460151881950397
-1	6160	0.13460151881950397
-1	6161	0.13460151881950397
-1	3751	0.13460151881950397
-1	4971	0.13460151881950397
-1	1993	0.13430680192948244
-1	572	0.13412762721712126
-1	4933	0.13412762721712126
-1	4816	0.13412762721712126
-1	936	0.13412762721712126
-1	1448	0.13412762721712126
-1	4313	0.13412762721712126
-1	5491	0.13412762721712126
-1	3202	0.13412762721712126
-1	3226	0.13412762721712126
-1	2211	0.13412762721712126
-1	3326	0.13412762721712126
-1	5154	0.13412762721712126
-1	3783	0.13412762721712126
-1	2456	0.13410386190006743
-1	2569	0.1340229900070811
-1	4775	0.1339183827125621
-1	5462	0.1339183827125621
-1	6173	0.1339183827125621
-1	1181	0.13347914866926053
-1	158	0.1333460908888784
-1	4013	0.13329239243038773
-1	2070	0.1329880754159117
-1	4209	0.13271900319628355
-1	4260	0.13271900319628355
-1	4192	0.13271900319628355
-1	2730	0.13271900319628355
-1	5558	0.13271900319628355
-1	636	0.13271900319628355
-1	2552	0.13271900319628355
-1	6042	0.13271900319628355
-1	2285	0.13271900319628355
-1	5153	0.13271900319628355
-1	6153	0.13271900319628355
-1	6378	0.13271900319628355
-1	3786	0.13271900319628355
-1	3129	0.13271900319628355
-1	5197	0.1325993736793619
-1	3153	0.13258238338274236
-1	3042	0.13251862959959052
-1	57	0.13245516726269768
-1	3393	0.13237049209400456
-1	4738	0.1317332432120685
-1	5296	0.1317332432120685
-1	4165	0.1315798859324278
-1	3883	0.13074987870372842
-1	2759	0.13074715680975174
-1	3379	0.1305774151524984
-1	3609	0.1302042541944504
-1	4086	0.13015183981377793
-1	4624	0.13011056051539333
-1	1887	0.1297155914833314
-1	1868	0.12964358485123684
-1	5899	0.12964358485123684
-1	5897	0.12964358485123684
-1	4234	0.12964358485123684
-1	5631	0.12964358485123684
-1	5911	0.1296209875672411
-1	4726	0.1296209875672411
-1	4497	0.1296209875672411
-1	1165	0.1296209875672411
-1	4326	0.1296209875672411
-1	5472	0.1296209875672411
-1	3653	0.1296209875672411
-1	3468	0.12898033270747752
-1	4015	0.12870829196232844
-1	6032	0.12855076593783757
-1	1765	0.12849649765014198
-1	1776	0.12835414934653344
-1	5709	0.12835414934653344
-1	5293	0.12835414934653344
-1	462	0.12798362164169355
-1	4569	0.12798362164169355
-1	3244	0.12798362164169355
-1	5699	0.12786045164500012
-1	1259	0.12780335417748798
-1	5165	0.1268938110366107
-1	4314	0.1266448750860482
-1	3861	0.12650489657813033
-1	2350	0.12642679292986875
-1	5432	0.12624456142248536
-1	1058	0.12613067505413658
-1	791	0.12603439743707284
-1	2666	0.1259567565123625
-1	4910	0.12577888519718916
-1	2187	0.12568429155479074
-1	343	0.1256693037415967
-1	3990	0.1249957744797557
-1	1434	0.12432399007731745
-1	420	0.12387580190894015
-1	167	0.1237711331055096
-1	2406	0.12337574560898396
-1	2804	0.1233563213540456
-1	522	0.123192885794241
-1	2023	0.12291395187701
-1	2493	0.12289774652328857
-1	435	0.12287459687899083
-1	1338	0.122772567953605
-1	5547	0.12274792683910724
-1	2494	0.12267611991617915
-1	3510	0.122484762958637
-1	820	0.1222699348692408
-1	4151	0.12170530907742291
-1	3117	0.12154420916409961
-1	2375	0.12152822955621569
-1	2952	0.12131996537209863
-1	2918	0.12109319333299322
-1	4082	0.12100915376062131
-1	1595	0.12091572904370824
-1	1301	0.12064605731090948
-1	5747	0.12051203476739789
-1	2619	0.12046323855504763
-1	2850	0.11995655741116187
-1	1533	0.11986874408119767
-1	5140	0.11962650357682632
-1	1767	0.11958549724833323
-1	1188	0.11938663454040448
-1	2368	0.11871290021083443
-1	388	0.11841718999880049
-1	3	0.11835868203004864
-1	527	0.11832429258476455
-1	3941	0.11824720279713129
-1	2022	0.1177897935147456
-1	4728	0.1169346546121893
-1	4315	0.1169346546121893
-1	4587	0.11686986630921001
-1	302	0.11685520597515676
-1	2272	0.11679393191133307
-1	2265	0.11668184801329531
-1	46	0.11659323187728
-1	5580	0.11649753476641089
-1	3156	0.11645878338273181
-1	5331	0.11608143599509078
-1	3082	0.11598101833271868
-1	2436	0.11551724543042009
-1	2282	0.11543075179670303
-1	4579	0.11539345444406326
-1	3820	0.11539345444406326
-1	3107	0.11539345444406326
-1	5505	0.11508571501920294
-1	5221	0.1150213432675685
-1	1339	0.1148365520070196
-1	1158	0.11479269029846595
-1	1242	0.11475426400113319
-1	2777	0.114727525063047
-1	189	0.11457297804986749
-1	1783	0.11408809119776213
-1	4989	0.1140769383555219
-1	1532	0.11383836130999123
-1	4099	0.11367785141066045
-1	1942	0.11361903392541735
-1	4389	0.1135819327533392
-1	3980	0.11317695640605589
-1	2589	0.11312653966144415
-1	4047	0.11304158426129059
-1	3741	0.11295639472964475
-1	2942	0.11220773538495875
-1	4067	0.11196308829290208
-1	353	0.11186403690155308
-1	40	0.11182225419494267
-1	795	0.11173024282818858
-1	1772	0.11134033616588165
-1	3463	0.11109342600222374
-1	1313	0.11064869984606635
-1	3410	0.11048521198005298
-1	3646	0.11045608877433721
-1	3896	0.11044705793832857
-1	3361	0.11008493375352622
-1	948	0.10998232398860079
-1	3394	0.10934037642365364
-1	168	0.10919635237976502
-1	3719	0.10886821523647144
-1	358	0.10842626220924291
-1	3970	0.1078501485849921
-1	1238	0.10778520275465185
-1	3006	0.10778520275465185
-1	3008	0.10778520275465185
-1	968	0.10771681429136767
-1	2006	0.10761925255560853
-1	5393	0.10754213635931964
-1	3946	0.10746413346870361
-1	3849	0.10734934436741177
-1	822	0.10601884011628565
-1	3769	0.10572318444495138
-1	583	0.10548692803672627
-1	2994	0.10535690206021885
-1	3730	0.10525639703139908
-1	3559	0.10523062751999698
-1	3257	0.10488662949548845
-1	2491	0.10482507139613918
-1	4040	0.10472079441315439
-1	2778	0.10406405938283556
-1	3074	0.10404408741993103
-1	1971	0.10397118700711844
-1	5401	0.10362496907998703
-1	4623	0.1035520807005783
-1	5671	0.10353784457492216
-1	4197	0.10342846306724501
-1	1794	0.10340815561246527
-1	4370	0.10277783725733773
-1	1475	0.10267071562818172
-1	470	0.10248789544862287
-1	1883	0.10246674913646225
-1	2309	0.10201756922180291
-1	2011	0.10177080696848835
-1	3090	0.10157307744517213
-1	1989	0.10154563115769999
-1	2499	0.10145582702353753
-1	173	0.10124278686995167
-1	1799	0.10115754971272788
-1	3742	0.10115054334017459
-1	415	0.10056358735292344
-1	1926	0.10053211535288847
-1	884	0.10037702839664553
-1	5672	0.10035902479062019
-1	3993	0.09998614508650788
-1	2541	0.09995179025393285
-1	3366	0.09993510344783799
-1	2149	0.09991474843981503
-1	2256	0.09966948653530293
-1	5687	0.09963565667487773
-1	2968	0.09962845559675125
-1	5661	0.09917246778236102
-1	3077	0.09907909411729283
-1	3161	0.09893196980937
-1	4042	0.09881755725518297
-1	5340	0.09877513799348299
-1	1439	0.09864485715780759
-1	4081	0.09864485715780759
-1	5168	0.09864485715780759
-1	969	0.09847333008045835
-1	4832	0.09797212485429249
-1	2307	0.09745247212322522
-1	3793	0.0973658782308279
-1	6210	0.09699030214877868
-1	1806	0.0969009330507274
-1	4735	0.09645790640662637
-1	2719	0.09645790640662637
-1	5055	0.09645790640662637
-1	4354	0.09644915395057493
-1	3713	0.09630639173066381
-1	3075	0.09629969025910165
-1	1713	0.09622494201583255
-1	2376	0.09612907931910471
-1	3240	0.09564026888635088
-1	2141	0.09559641469847688
-1	5553	0.09550188915704425
-1	1818	0.0954914371325402
-1	23	0.09544732268622698
-1	5938	0.09511819095983397
-1	2736	0.09509758881226633
-1	3821	0.09509758881226633
-1	4549	0.09484068156493328
-1	4394	0.09474940559961795
-1	4188	0.09454036083436157
-1	6108	0.09450323259184228
-1	3650	0.09432503792064038
-1	2921	0.09396117070270439
-1	6237	0.09391217372775534
-1	136	0.09365668092375555
-1	3702	0.09334683764690119
-1	4037	0.09327403646474129
-1	3181	0.09327107635059954
-1	81	0.09322875191395921
-1	3827	0.09310298050665583
-1	4338	0.09271453437283216
-1	5171	0.09256757304036038
-1	836	0.0923963433311944
-1	4068	0.0922425898795393
-1	4839	0.09206418938637373
-1	3880	0.09206418938637373
-1	2236	0.09204111307120655
-1	3376	0.09177726373411381
-1	2299	0.09154179014620911
-1	3462	0.09151159081932743
-1	621	0.09149529600628958
-1	3942	0.09121596648549875
-1	5866	0.09118297790311944
-1	2363	0.09112935209474816
-1	5360	0.09112913083846821
-1	2040	0.09112913083846821
-1	3937	0.09112913083846821
-1	5447	0.0911029174341916
-1	2194	0.090898571248844
-1	3441	0.0906536120140288
-1	3698	0.09054977889998506
-1	5314	0.09026790743272935
-1	461	0.09010959452239424
-1	3576	0.08991735241722679
-1	6341	0.0898207458545782
-1	364	0.08978563913369815
-1	2047	0.08963862267662046
-1	759	0.0895826811980581
-1	5094	0.08949907236874083
-1	2934	0.08925948138368972
-1	2091	0.08913171784687911
-1	6084	0.08897700258791844
-1	1681	0.08836173571273158
-1	1680	0.08836173571273158
-1	4274	0.08836173571273158
-1	3027	0.08836173571273158
-1	3565	0.08797075538974417
-1	3469	0.08786735607063152
-1	5014	0.08766696608035071
-1	1790	0.08751472402924904
-1	4709	0.08732487093483864
-1	5269	0.08705348409266815
-1	1348	0.0869865064278838
-1	1352	0.08684122250777307
-1	2776	0.08677409955132184
-1	5468	0.08677409955132184
-1	180	0.08671636929011568
-1	49	0.0865698748178503
-1	4782	0.08639507280122317
-1	2459	0.08637716523835198
-1	4289	0.08626406250481383
-1	4437	0.08579510193600502
-1	1605	0.08562942534745521
-1	4300	0.08519293158159165
-1	2816	0.08505751316479368
-1	3221	0.08505751316479368
-1	1663	0.08501218412930521
-1	4948	0.0846357119916785
-1	5665	0.08418165421336735
-1	1335	0.08414954872054373
-1	5000	0.08414880662835675
-1	3264	0.08407573099602986
-1	3977	0.08407573099602986
-1	3554	0.08397464466475071
-1	4702	0.0839235330426414
-1	4168	0.08370828595185748
-1	877	0.0836531484783123
-1	3866	0.08356349766277806
-1	5464	0.08354562317643575
-1	1077	0.08335635809051188
-1	3168	0.08331522046394534
-1	1431	0.08305502113006916
-1	3448	0.08301716809093815
-1	5113	0.08291475236607511
-1	6078	0.08274671424237597
-1	2353	0.08223038491385955
-1	2632	0.08189402372064321
-1	5136	0.08180032132442523
-1	2326	0.08170410481037119
-1	3596	0.0816649868580466
-1	4523	0.08156853608279495
-1	1649	0.08150796077840068
-1	4622	0.08134652842644959
-1	4486	0.08128053754808995
-1	5690	0.08126749039273479
-1	2709	0.08116293706360628
-1	1151	0.08116293706360628
-1	6043	0.08116293706360628
-1	4035	0.08106606263531305
-1	2768	0.08095519591758189
-1	5705	0.08094760569082353
-1	5082	0.08066872274677732
-1	3301	0.0802721581030152
-1	747	0.08023208193441103
-1	5129	0.07989035883269156
-1	3114	0.07989035883269156
-1	2423	0.07978537884716945
-1	2419	0.07978537884716945
-1	4490	0.07978537884716945
-1	3487	0.07961206236645772
-1	5977	0.07955945160632771
-1	3700	0.07945153151288604
-1	1914	0.07935016741654943
-1	1822	0.0793113224427045
-1	5770	0.0792646366052997
-1	3978	0.07910804161177082
-1	1382	0.07908509663534824
-1	3536	0.07895567282874323
-1	4227	0.07886442900691916
-1	6356	0.07885443604145878
-1	2355	0.07882114023942716
-1	4704	0.07855664081014087
-1	4715	0.07855664081014087
-1	4556	0.07855664081014087
-1	5142	0.07855664081014087
-1	4607	0.07843671256691193
-1	4024	0.078196320183729
-1	3367	0.07815883613341323
-1	2398	0.07807900772391162
-1	25	0.07807051318957212
-1	2670	0.07777117997154748
-1	4475	0.07772178808464064
-1	2304	0.0777079256411673
-1	5027	0.07765130065393093
-1	5219	0.07760640182676273
-1	5056	0.07757324534737131
-1	5731	0.07749346063403485
-1	4180	0.07742654382561498
-1	191	0.07722647556325886
-1	850	0.07700604670173847
-1	815	0.07665082561689775
-1	499	0.07622149141275211
-1	643	0.07616960128521967
-1	4291	0.07616798603423021
-1	2193	0.07559829543610001
-1	3300	0.07559829543610001
-1	6167	0.07559829543610001
-1	2300	0.07558032375580283
-1	3727	0.07534533039361858
-1	4515	0.07524023969872248
-1	871	0.07497725353022357
-1	4691	0.07497528573025182
-1	1325	0.07497528573025182
-1	4454	0.07497528573025182
-1	5120	0.07497528573025182
-1	3004	0.07497528573025182
-1	1408	0.07474971570152474
-1	5258	0.07455615602773917
-1	3312	0.07450437696113604
-1	2424	0.07432601124714355
-1	1403	0.07419376516203441
-1	165	0.07409964060941564
-1	1358	0.07392239066972782
-1	1851	0.0738248141612363
-1	4773	0.0737522150769055
-1	1432	0.0737522150769055
-1	216	0.07374679270536172
-1	2629	0.07355165625431426
-1	4371	0.07338886256181439
-1	2742	0.07334461526059284
-1	5748	0.07322506990677898
-1	2395	0.07314480981989255
-1	6157	0.07313218359912177
-1	2985	0.07301132946322375
-1	6185	0.07296529983974603
-1	4627	0.0723419399251208
-1	2020	0.07230989905184135
-1	1486	0.07217680094412514
-1	1881	0.07199757843169764
-1	3294	0.07199757843169764
-1	5241	0.07194748248690923
-1	1046	0.07168250858727464
-1	4298	0.0714908096556844
-1	2940	0.0710144540798056
-1	4946	0.0710144540798056
-1	4892	0.0710144540798056
-1	606	0.0710144540798056
-1	4348	0.0710144540798056
-1	4746	0.07095680344085332
-1	3014	0.07088201403711195
-1	397	0.07067903887174946
-1	4937	0.07065700781085268
-1	2784	0.07039809030033875
-1	3794	0.07011761728661718
-1	818	0.07003884764571731
-1	4395	0.06988514638730102
-1	961	0.0692353019847954
-1	3215	0.06921173807341897
-1	3685	0.06916084574872418
-1	6254	0.06909791603775335
-1	4562	0.06909557613341304
-1	1525	0.06906295132203455
-1	1540	0.06906295132203455
-1	2400	0.06906295132203455
-1	2410	0.06906295132203455
-1	4633	0.06899591871163548
-1	771	0.06884251523794874
-1	2993	0.06867724361007442
-1	4659	0.06858947905848052
-1	3235	0.06853540162809833
-1	1196	0.06799516257448368
-1	6247	0.06779155405875383
-1	5662	0.06772633387476772
-1	4893	0.06765752729997655
-1	1435	0.06765752729997655
-1	2421	0.06765752729997655
-1	2422	0.06765752729997655
-1	2418	0.06765752729997655
-1	4167	0.06765752729997655
-1	2399	0.06765752729997655
-1	4489	0.06765752729997655
-1	4488	0.06765752729997655
-1	4374	0.06765752729997655
-1	4032	0.06765752729997655
-1	5175	0.06765752729997655
-1	5034	0.06765752729997655
-1	3118	0.06765752729997655
-1	6288	0.06761707032754116
-1	4707	0.06748614809207996
-1	2461	0.0674653173476847
-1	3280	0.06733515412127442
-1	3922	0.06725093674818876
-1	144	0.06715096416892673
-1	2034	0.06683901971477679
-1	2435	0.06682085130946781
-1	5361	0.06659479644555363
-1	2174	0.06653605864382295
-1	3322	0.06635055972886693
-1	4252	0.06622774622405614
-1	4377	0.06616296220281097
-1	3472	0.06611756512509599
-1	2984	0.06607439621970644
-1	6105	0.06590441158836355
-1	3013	0.0658750289408393
-1	5391	0.06587335065059005
-1	6136	0.06559962474549197
-1	4239	0.06542526706360158
-1	4451	0.06542526706360158
-1	2480	0.06538934152089422
-1	4323	0.06530256989110399
-1	3795	0.06509432133214643
-1	4969	0.06509432133214643
-1	5739	0.0649948757582388
-1	5126	0.06484038125275504
-1	5022	0.06484038125275504
-1	5209	0.06480840125276031
-1	4469	0.0647797699567148
-1	3867	0.06457177203731483
-1	2080	0.06452171600940067
-1	5046	0.06432209167216316
-1	4271	0.06432135826349747
-1	1247	0.06423761932764646
-1	4365	0.06406985269903413
-1	4921	0.06404952582500999
-1	5988	0.06374221540888848
-1	5847	0.06371594840681256
-1	5825	0.06371594840681256
-1	5875	0.06371594840681256
-1	5738	0.06371594840681256
-1	5757	0.06371594840681256
-1	5704	0.06371594840681256
-1	5788	0.06371594840681256
-1	5692	0.06371594840681256
-1	3155	0.06368830716099362
-1	4675	0.06363289507117294
-1	4250	0.06349519745126374
-1	5524	0.06349519745126374
-1	4185	0.06297255669374634
-1	1655	0.0628952403421323
-1	687	0.0628952403421323
-1	2597	0.0628952403421323
-1	1935	0.06289325406202546
-1	1471	0.06282737490420187
-1	3705	0.0626903734592197
-1	3378	0.0624131756542084
-1	4722	0.06234641958330737
-1	2001	0.06232597390017604
-1	375	0.062223994651355266
-1	697	0.062048447742930356
-1	1648	0.06201044186812728
-1	2409	0.06201044186812728
-1	3414	0.06201044186812728
-1	3959	0.06201044186812728
-1	5250	0.06198709640004175
-1	3991	0.061957585392126445
-1	1548	0.06193379656326767
-1	2254	0.061797737095624264
-1	5514	0.06179604253223818
-1	4340	0.061761100326916854
-1	1019	0.06172988804907081
-1	4952	0.06169015525877925
-1	605	0.06156770920121497
-1	2587	0.0615614467048024
-1	3213	0.0615614467048024
-1	1651	0.06156141382585296
-1	2434	0.0614882329424053
-1	2575	0.06136984499858232
-1	3323	0.06124972145464624
-1	42	0.06103914020318066
-1	2281	0.06096575862735255
-1	4064	0.06096575862735255
-1	3186	0.06096575862735255
-1	1064	0.06078583110926746
-1	2550	0.06078583110926746
-1	3065	0.060678565867344825
-1	4351	0.06050423842934106
-1	325	0.06039695514715417
-1	4251	0.06004967601813837
-1	3733	0.06004967601813837
-1	1015	0.05990503537337685
-1	5517	0.05979719091806467
-1	4891	0.059726054313755085
-1	2261	0.05969600882536066
-1	16	0.0596924251572685
-1	5470	0.05965937154920435
-1	5448	0.059529967894338905
-1	2330	0.05926062121502705
-1	6249	0.05919100720378522
-1	345	0.05915315572812245
-1	3568	0.05915315572812245
-1	3374	0.05915249595409707
-1	1404	0.05905571413435166
-1	5045	0.05902475676771129
-1	5297	0.0589573991242302
-1	3893	0.05891809871387045
-1	3541	0.05861579307759106
-1	5512	0.058495754777956516
-1	5534	0.058495754777956516
-1	2384	0.058427083338551525
-1	138	0.05837429573034226
-1	3838	0.05837031400928724
-1	2192	0.05834615877958934
-1	2027	0.058227762086246054
-1	6256	0.058181469224498586
-1	6287	0.058181469224498544
-1	503	0.058141030330511566
-1	2420	0.05790886895785435
-1	3154	0.05790886895785435
-1	4550	0.05762238807497571
-1	6031	0.057608061802175696
-1	6389	0.05757187641400587
-1	1791	0.05750264228222256
-1	4491	0.05733599209562994
-1	6124	0.05733599209562994
-1	3674	0.05726926115753762
-1	5461	0.05725337374969915
-1	2114	0.057194395563726574
-1	6039	0.05704327290135572
-1	3460	0.05679602788222706
-1	618	0.05675074694027491
-1	500	0.05673659516135421
-1	3963	0.056609940934032064
-1	4425	0.05652636074043456
-1	5032	0.056494116376671524
-1	1603	0.056473829389797614
-1	3062	0.056431098365946404
-1	5070	0.056324723157937344
-1	5803	0.05617937738012393
-1	2758	0.056068839251107526
-1	2505	0.05598224293674577
-1	3261	0.055953424181693655
-1	6379	0.05585557540037997
-1	6024	0.05577141529214256
-1	2263	0.05577141529214256
-1	30	0.0553138678139734
-1	282	0.05523184966553777
-1	4764	0.055099758872349434
-1	6333	0.055099758872349434
-1	5773	0.05507692565910232
-1	5787	0.05507692565910232
-1	4577	0.05507142064450021
-1	1418	0.0549552283273619
-1	3832	0.05485035542198976
-1	4164	0.05484202448696281
-1	2125	0.05484202448696281
-1	6327	0.05471098186127856
-1	4813	0.05466959817920178
-1	4272	0.05444498521556407
-1	3375	0.05439639425672844
-1	3624	0.05439639425672844
-1	4968	0.054221910623960146
-1	4637	0.05407887559293552
-1	4762	0.05407164256453836
-1	4311	0.05405544197165156
-1	128	0.0540458416849612
-1	2991	0.053664856511556745
-1	4864	0.05361483004660857
-1	3135	0.0534297542546882
-1	6183	0.05328270402691678
-1	350	0.053243640109198236
-1	5877	0.05306890700839079
-1	5348	0.053037829431240226
-1	162	0.05297317210479311
-1	5960	0.052778946413205866
-1	5857	0.052778946413205866
-1	4583	0.05260526725977212
-1	3436	0.052257574540959376
-1	2766	0.052226255892931714
-1	3760	0.05195622100138484
-1	2021	0.05179387465579585
-1	4065	0.051709869848058185
-1	4517	0.05161496857255775
-1	248	0.05126083649133164
-1	137	0.05117420426197113
-1	6142	0.05117315960019991
-1	3902	0.051105259544740926
-1	4560	0.05110282716298936
-1	3953	0.05110282716298936
-1	5098	0.05093536219953092
-1	2867	0.050900197681388315
-1	6326	0.05046066355915599
-1	5145	0.05021397314317436
-1	2812	0.05017670038699955
-1	1844	0.0500830378982983
-1	2394	0.0499863529533396
-1	4	0.04990668634579333
-1	1017	0.04990285082244367
-1	1760	0.04990000370389521
-1	4524	0.04990000370389521
-1	4145	0.04990000370389521
-1	3345	0.0496061721340919
-1	4367	0.049576477905663836
-1	5184	0.049576477905663836
-1	5192	0.0493756053973561
-1	5328	0.049179971206566066
-1	3319	0.049179971206566066
-1	1397	0.049166121833793
-1	4594	0.0491114899691291
-1	4705	0.04909989242687762
-1	3847	0.04909989242687762
-1	340	0.04896163499894633
-1	155	0.04891877172007691
-1	6367	0.04886642001734706
-1	6077	0.04875976247267163
-1	159	0.04869843878962405
-1	4700	0.04861085408370378
-1	4718	0.04861085408370378
-1	4928	0.04861085408370378
-1	4925	0.04861085408370378
-1	4870	0.04861085408370378
-1	5389	0.04861085408370378
-1	6231	0.04861085408370378
-1	6146	0.04861085408370378
-1	6347	0.04861085408370378
-1	6304	0.04861085408370378
-1	3846	0.04858402808948115
-1	2201	0.048210880461913984
-1	6162	0.048210880461913984
-1	1996	0.04811769690456441
-1	2946	0.04809341947817519
-1	941	0.04809341947817519
-1	287	0.04809341947817481
-1	6080	0.048030968518066784
-1	4717	0.047968665531421865
-1	4710	0.04794781173016484
-1	5210	0.04764824374289756
-1	5720	0.04761570197056046
-1	335	0.04742138185918042
-1	5984	0.04739141161305154
-1	3787	0.047358670074142066
-1	3528	0.047339182893640815
-1	3144	0.047334106496060124
-1	2026	0.04707111120067302
-1	143	0.046964236680732845
-1	3029	0.04691312634628321
-1	5841	0.04687825435845583
-1	3223	0.046803991249290966
-1	3661	0.04668915440508517
-1	2982	0.0459245448324717
-1	4505	0.0459245448324717
-1	1643	0.0459245448324717
-1	1642	0.0459245448324717
-1	4852	0.0459245448324717
-1	1480	0.0459245448324717
-1	4736	0.0459245448324717
-1	1430	0.0459245448324717
-1	1327	0.0459245448324717
-1	4142	0.0459245448324717
-1	1258	0.0459245448324717
-1	5307	0.0459245448324717
-1	3431	0.0459245448324717
-1	3433	0.0459245448324717
-1	5146	0.0459245448324717
-1	3676	0.0459245448324717
-1	6330	0.0459245448324717
-1	3967	0.0459245448324717
-1	986	0.04532309298565906
-1	4378	0.04514372490465531
-1	4548	0.04513064422831578
-1	2481	0.04512624794607742
-1	5638	0.04512624794607742
-1	5618	0.04512624794607742
-1	4359	0.04512624794607742
-1	6297	0.04512624794607742
-1	6275	0.04512624794607742
-1	6300	0.04512624794607742
-1	5428	0.045090205909746266
-1	6289	0.044612911173005594
-1	4618	0.04453637617909182
-1	5744	0.0445229910393991
-1	1766	0.044003286088092404
-1	4238	0.043970404336580914
-1	4283	0.043947716328521916
-1	5985	0.043925890168898134
-1	4353	0.043925890168898134
-1	5818	0.04381926601675832
-1	5861	0.04381926601675832
-1	5854	0.04381926601675832
-1	5780	0.04381926601675832
-1	1979	0.043771051844608375
-1	1207	0.04372938952784147
-1	4113	0.043581408902694796
-1	4500	0.04357548451837792
-1	4502	0.04357548451837792
-1	3667	0.04357548451837792
-1	5033	0.04354051752542905
-1	1324	0.04350025752530387
-1	5079	0.04350025752530387
-1	5907	0.04349798869124783
-1	190	0.0434959481703817
-1	4280	0.043479850072267776
-1	5141	0.0434123279459416
-1	5761	0.04340417335309596
-1	5035	0.04290936344342435
-1	3246	0.042900730598889734
-1	1894	0.042859601098261084
-1	5101	0.042708505179924604
-1	6200	0.042708505179924604
-1	6320	0.042708505179924604
-1	616	0.042568230980694066
-1	4104	0.04243818155370645
-1	5290	0.04243818155370645
-1	5067	0.04240713755364979
-1	5958	0.0422610359755301
-1	2943	0.04218764767055832
-1	6344	0.04186987001967227
-1	5076	0.04184686006367191
-1	1485	0.04182580241467907
-1	3255	0.04176527159158151
-1	3185	0.041686917190542065
-1	5383	0.041643306175759086
-1	3850	0.041404358904971246
-1	4436	0.04132984597185513
-1	4650	0.041295317842809494
-1	4694	0.041295317842809494
-1	4779	0.041295317842809494
-1	963	0.041295317842809494
-1	1386	0.041295317842809494
-1	2331	0.041295317842809494
-1	2741	0.041295317842809494
-1	6046	0.041295317842809494
-1	5227	0.041295317842809494
-1	5287	0.041295317842809494
-1	6227	0.041295317842809494
-1	4084	0.041295317842809494
-1	6110	0.041295317842809494
-1	3643	0.041295317842809494
-1	6365	0.041295317842809494
-1	6307	0.041295317842809494
-1	6346	0.041295317842809494
-1	4985	0.041295317842809494
-1	5508	0.04115935705165166
-1	4434	0.04115935705165166
-1	3777	0.0410848364910533
-1	4144	0.04096208672818008
-1	3879	0.04096208672818008
-1	4781	0.0409546743773371
-1	5097	0.0409546743773371
-1	4496	0.04084519484973776
-1	4655	0.04072853971741904
-1	934	0.04072853971741904
-1	4247	0.04072853971741904
-1	2486	0.04072853971741904
-1	5783	0.04072853971741904
-1	5575	0.04072853971741904
-1	685	0.04072853971741904
-1	5406	0.04072853971741904
-1	5445	0.04072853971741904
-1	6067	0.04072853971741904
-1	6053	0.04072853971741904
-1	5176	0.04072853971741904
-1	3738	0.04072853971741904
-1	3985	0.04072853971741904
-1	6035	0.04071866903616799
-1	5181	0.040699805623358565
-1	4642	0.04063789564504881
-1	4896	0.04063789564504881
-1	5725	0.04063789564504881
-1	2354	0.04063789564504881
-1	3279	0.04063789564504881
-1	3272	0.04063789564504881
-1	5298	0.04063789564504881
-1	6358	0.04063789564504881
-1	4257	0.04037434023477503
-1	4833	0.04036973953403451
-1	4809	0.04036973953403451
-1	2178	0.04036973953403451
-1	3372	0.04036973953403451
-1	4983	0.04036973953403451
-1	4998	0.04036973953403451
-1	3921	0.04036973953403451
-1	1559	0.040341339482707836
-1	3872	0.04026926415793842
